FANN_FLO_2.1
num_layers=3
learning_rate=0.700000
connection_rate=1.000000
network_type=0
learning_momentum=0.000000
training_algorithm=2
train_error_function=1
train_stop_function=0
cascade_output_change_fraction=0.010000
quickprop_decay=-0.000100
quickprop_mu=1.750000
rprop_increase_factor=1.200000
rprop_decrease_factor=0.500000
rprop_delta_min=0.000000
rprop_delta_max=50.000000
rprop_delta_zero=0.100000
cascade_output_stagnation_epochs=12
cascade_candidate_change_fraction=0.010000
cascade_candidate_stagnation_epochs=12
cascade_max_out_epochs=150
cascade_min_out_epochs=50
cascade_max_cand_epochs=150
cascade_min_cand_epochs=50
cascade_num_candidate_groups=2
bit_fail_limit=3.49999994039535522461e-001
cascade_candidate_limit=1.00000000000000000000e+003
cascade_weight_multiplier=4.00000005960464477539e-001
cascade_activation_functions_count=10
cascade_activation_functions=3 5 7 8 10 11 14 15 16 17 
cascade_activation_steepnesses_count=4
cascade_activation_steepnesses=2.50000000000000000000e-001 5.00000000000000000000e-001 7.50000000000000000000e-001 1.00000000000000000000e+000 
layer_sizes=77 77 4 
scale_included=0
neurons (num_inputs, activation_function, activation_steepness)=(0, 0, 0.00000000000000000000e+000) (0, 0, 0.00000000000000000000e+000) (0, 0, 0.00000000000000000000e+000) (0, 0, 0.00000000000000000000e+000) (0, 0, 0.00000000000000000000e+000) (0, 0, 0.00000000000000000000e+000) (0, 0, 0.00000000000000000000e+000) (0, 0, 0.00000000000000000000e+000) (0, 0, 0.00000000000000000000e+000) (0, 0, 0.00000000000000000000e+000) (0, 0, 0.00000000000000000000e+000) (0, 0, 0.00000000000000000000e+000) (0, 0, 0.00000000000000000000e+000) (0, 0, 0.00000000000000000000e+000) (0, 0, 0.00000000000000000000e+000) (0, 0, 0.00000000000000000000e+000) (0, 0, 0.00000000000000000000e+000) (0, 0, 0.00000000000000000000e+000) (0, 0, 0.00000000000000000000e+000) (0, 0, 0.00000000000000000000e+000) (0, 0, 0.00000000000000000000e+000) (0, 0, 0.00000000000000000000e+000) (0, 0, 0.00000000000000000000e+000) (0, 0, 0.00000000000000000000e+000) (0, 0, 0.00000000000000000000e+000) (0, 0, 0.00000000000000000000e+000) (0, 0, 0.00000000000000000000e+000) (0, 0, 0.00000000000000000000e+000) (0, 0, 0.00000000000000000000e+000) (0, 0, 0.00000000000000000000e+000) (0, 0, 0.00000000000000000000e+000) (0, 0, 0.00000000000000000000e+000) (0, 0, 0.00000000000000000000e+000) (0, 0, 0.00000000000000000000e+000) (0, 0, 0.00000000000000000000e+000) (0, 0, 0.00000000000000000000e+000) (0, 0, 0.00000000000000000000e+000) (0, 0, 0.00000000000000000000e+000) (0, 0, 0.00000000000000000000e+000) (0, 0, 0.00000000000000000000e+000) (0, 0, 0.00000000000000000000e+000) (0, 0, 0.00000000000000000000e+000) (0, 0, 0.00000000000000000000e+000) (0, 0, 0.00000000000000000000e+000) (0, 0, 0.00000000000000000000e+000) (0, 0, 0.00000000000000000000e+000) (0, 0, 0.00000000000000000000e+000) (0, 0, 0.00000000000000000000e+000) (0, 0, 0.00000000000000000000e+000) (0, 0, 0.00000000000000000000e+000) (0, 0, 0.00000000000000000000e+000) (0, 0, 0.00000000000000000000e+000) (0, 0, 0.00000000000000000000e+000) (0, 0, 0.00000000000000000000e+000) (0, 0, 0.00000000000000000000e+000) (0, 0, 0.00000000000000000000e+000) (0, 0, 0.00000000000000000000e+000) (0, 0, 0.00000000000000000000e+000) (0, 0, 0.00000000000000000000e+000) (0, 0, 0.00000000000000000000e+000) (0, 0, 0.00000000000000000000e+000) (0, 0, 0.00000000000000000000e+000) (0, 0, 0.00000000000000000000e+000) (0, 0, 0.00000000000000000000e+000) (0, 0, 0.00000000000000000000e+000) (0, 0, 0.00000000000000000000e+000) (0, 0, 0.00000000000000000000e+000) (0, 0, 0.00000000000000000000e+000) (0, 0, 0.00000000000000000000e+000) (0, 0, 0.00000000000000000000e+000) (0, 0, 0.00000000000000000000e+000) (0, 0, 0.00000000000000000000e+000) (0, 0, 0.00000000000000000000e+000) (0, 0, 0.00000000000000000000e+000) (0, 0, 0.00000000000000000000e+000) (0, 0, 0.00000000000000000000e+000) (0, 0, 0.00000000000000000000e+000) (77, 6, 5.00000000000000000000e-001) (77, 6, 5.00000000000000000000e-001) (77, 6, 5.00000000000000000000e-001) (77, 6, 5.00000000000000000000e-001) (77, 6, 5.00000000000000000000e-001) (77, 6, 5.00000000000000000000e-001) (77, 6, 5.00000000000000000000e-001) (77, 6, 5.00000000000000000000e-001) (77, 6, 5.00000000000000000000e-001) (77, 6, 5.00000000000000000000e-001) (77, 6, 5.00000000000000000000e-001) (77, 6, 5.00000000000000000000e-001) (77, 6, 5.00000000000000000000e-001) (77, 6, 5.00000000000000000000e-001) (77, 6, 5.00000000000000000000e-001) (77, 6, 5.00000000000000000000e-001) (77, 6, 5.00000000000000000000e-001) (77, 6, 5.00000000000000000000e-001) (77, 6, 5.00000000000000000000e-001) (77, 6, 5.00000000000000000000e-001) (77, 6, 5.00000000000000000000e-001) (77, 6, 5.00000000000000000000e-001) (77, 6, 5.00000000000000000000e-001) (77, 6, 5.00000000000000000000e-001) (77, 6, 5.00000000000000000000e-001) (77, 6, 5.00000000000000000000e-001) (77, 6, 5.00000000000000000000e-001) (77, 6, 5.00000000000000000000e-001) (77, 6, 5.00000000000000000000e-001) (77, 6, 5.00000000000000000000e-001) (77, 6, 5.00000000000000000000e-001) (77, 6, 5.00000000000000000000e-001) (77, 6, 5.00000000000000000000e-001) (77, 6, 5.00000000000000000000e-001) (77, 6, 5.00000000000000000000e-001) (77, 6, 5.00000000000000000000e-001) (77, 6, 5.00000000000000000000e-001) (77, 6, 5.00000000000000000000e-001) (77, 6, 5.00000000000000000000e-001) (77, 6, 5.00000000000000000000e-001) (77, 6, 5.00000000000000000000e-001) (77, 6, 5.00000000000000000000e-001) (77, 6, 5.00000000000000000000e-001) (77, 6, 5.00000000000000000000e-001) (77, 6, 5.00000000000000000000e-001) (77, 6, 5.00000000000000000000e-001) (77, 6, 5.00000000000000000000e-001) (77, 6, 5.00000000000000000000e-001) (77, 6, 5.00000000000000000000e-001) (77, 6, 5.00000000000000000000e-001) (77, 6, 5.00000000000000000000e-001) (77, 6, 5.00000000000000000000e-001) (77, 6, 5.00000000000000000000e-001) (77, 6, 5.00000000000000000000e-001) (77, 6, 5.00000000000000000000e-001) (77, 6, 5.00000000000000000000e-001) (77, 6, 5.00000000000000000000e-001) (77, 6, 5.00000000000000000000e-001) (77, 6, 5.00000000000000000000e-001) (77, 6, 5.00000000000000000000e-001) (77, 6, 5.00000000000000000000e-001) (77, 6, 5.00000000000000000000e-001) (77, 6, 5.00000000000000000000e-001) (77, 6, 5.00000000000000000000e-001) (77, 6, 5.00000000000000000000e-001) (77, 6, 5.00000000000000000000e-001) (77, 6, 5.00000000000000000000e-001) (77, 6, 5.00000000000000000000e-001) (77, 6, 5.00000000000000000000e-001) (77, 6, 5.00000000000000000000e-001) (77, 6, 5.00000000000000000000e-001) (77, 6, 5.00000000000000000000e-001) (77, 6, 5.00000000000000000000e-001) (77, 6, 5.00000000000000000000e-001) (77, 6, 5.00000000000000000000e-001) (77, 6, 5.00000000000000000000e-001) (0, 6, 0.00000000000000000000e+000) (77, 5, 1.00000000000000000000e+000) (77, 5, 1.00000000000000000000e+000) (77, 5, 1.00000000000000000000e+000) (0, 5, 1.00000000000000000000e+000) 
connections (connected_to_neuron, weight)=(0, 2.23095345497131347656e+000) (1, -1.26197493076324462891e+000) (2, -5.33133172988891601562e+000) (3, 3.17931562662124633789e-001) (4, -3.25794625282287597656e+000) (5, 5.95556318759918212891e-001) (6, 8.67050513625144958496e-002) (7, 4.99365866184234619141e-001) (8, 3.95264124870300292969e+000) (9, 9.13509368896484375000e-001) (10, 5.78122091293334960938e+000) (11, -1.50000000000000000000e+003) (12, 1.50000000000000000000e+003) (13, 1.50000000000000000000e+003) (14, 1.50000000000000000000e+003) (15, 1.50000000000000000000e+003) (16, 1.50000000000000000000e+003) (17, 1.50000000000000000000e+003) (18, 7.16811299324035644531e-001) (19, -4.48206245899200439453e-001) (20, 6.92768275737762451172e-001) (21, 6.15603208541870117188e-001) (22, 1.39185929298400878906e+000) (23, 2.37395024299621582031e+000) (24, -2.22338318824768066406e+000) (25, 1.43984265136718750000e+003) (26, 1.34039941406250000000e+003) (27, 5.78851562500000000000e+002) (28, 1.50000000000000000000e+003) (29, 1.50000000000000000000e+003) (30, 1.50000000000000000000e+003) (31, 1.50000000000000000000e+003) (32, 1.50000000000000000000e+003) (33, 1.50000000000000000000e+003) (34, 1.68328002095222473145e-001) (35, -5.00751554965972900391e-001) (36, 9.89141559600830078125e+000) (37, -4.98225164413452148438e+000) (38, 1.31386056542396545410e-001) (39, 1.51675200462341308594e+000) (40, 5.00921845436096191406e-001) (41, 1.96796703338623046875e+000) (42, -4.01089763641357421875e+000) (43, 6.66731691360473632812e+000) (44, 1.50000000000000000000e+003) (45, 1.50000000000000000000e+003) (46, 1.50000000000000000000e+003) (47, 1.50000000000000000000e+003) (48, 1.50000000000000000000e+003) (49, 1.50000000000000000000e+003) (50, -2.41113209724426269531e+000) (51, 1.35715961456298828125e+000) (52, -4.15800428390502929688e+000) (53, 1.20600681304931640625e+001) (54, -2.76177764892578125000e+002) (55, -1.50000000000000000000e+003) (56, 1.50000000000000000000e+003) (57, 1.50000000000000000000e+003) (58, 1.50000000000000000000e+003) (59, 1.50000000000000000000e+003) (60, 1.50000000000000000000e+003) (61, 1.50000000000000000000e+003) (62, 1.50000000000000000000e+003) (63, 1.50000000000000000000e+003) (64, 1.50000000000000000000e+003) (65, 1.50000000000000000000e+003) (66, 5.37716293334960937500e+000) (67, -1.20652186870574951172e+000) (68, 8.16036105155944824219e-001) (69, 1.30422830581665039062e-001) (70, -5.92061400413513183594e-001) (71, 7.50551342964172363281e-001) (72, 3.91467928886413574219e-001) (73, 4.21378947794437408447e-002) (74, 1.50000000000000000000e+003) (75, 1.50000000000000000000e+003) (76, 3.51664155721664428711e-001) (0, 2.06276965141296386719e+000) (1, 1.61131381988525390625e+000) (2, -5.77795803546905517578e-001) (3, -8.88967418670654296875e+000) (4, -2.02823543548583984375e+000) (5, 3.58456492424011230469e-001) (6, -4.84204101562500000000e+000) (7, 2.41946640014648437500e+001) (8, 8.41875743865966796875e+000) (9, 9.10680007934570312500e+000) (10, -2.05282664299011230469e+000) (11, 2.95132942199707031250e+001) (12, 1.50000000000000000000e+003) (13, 1.50000000000000000000e+003) (14, 1.50000000000000000000e+003) (15, 1.50000000000000000000e+003) (16, 1.50000000000000000000e+003) (17, 1.50000000000000000000e+003) (18, 1.28763270378112792969e+000) (19, 6.18963360786437988281e-001) (20, -2.10093545913696289062e+000) (21, -7.99781513214111328125e+000) (22, -2.44318938255310058594e+000) (23, -2.42165350914001464844e+000) (24, 2.29207687377929687500e+001) (25, 1.49094555664062500000e+003) (26, 1.04712377929687500000e+003) (27, 1.06392883300781250000e+002) (28, 1.50000000000000000000e+003) (29, 1.50000000000000000000e+003) (30, 1.50000000000000000000e+003) (31, 1.50000000000000000000e+003) (32, 1.50000000000000000000e+003) (33, 1.50000000000000000000e+003) (34, 8.87234592437744140625e+000) (35, -2.19674021005630493164e-001) (36, 2.10177063941955566406e+000) (37, -3.35905647277832031250e+000) (38, 1.18073377609252929688e+001) (39, 4.79921722412109375000e+000) (40, -9.30748283863067626953e-002) (41, 2.37680315971374511719e+000) (42, -1.79706418514251708984e+000) (43, 1.29113130569458007812e+001) (44, 1.50000000000000000000e+003) (45, 1.50000000000000000000e+003) (46, 1.50000000000000000000e+003) (47, 1.50000000000000000000e+003) (48, 1.50000000000000000000e+003) (49, 1.50000000000000000000e+003) (50, -1.11593303680419921875e+001) (51, 1.89462451934814453125e+001) (52, 1.67406066894531250000e+002) (53, -3.88836090087890625000e+002) (54, 7.65708251953125000000e+002) (55, 1.50000000000000000000e+003) (56, 1.50000000000000000000e+003) (57, 1.50000000000000000000e+003) (58, 1.50000000000000000000e+003) (59, 1.50000000000000000000e+003) (60, 1.50000000000000000000e+003) (61, 1.50000000000000000000e+003) (62, 1.50000000000000000000e+003) (63, 1.50000000000000000000e+003) (64, 1.50000000000000000000e+003) (65, 1.50000000000000000000e+003) (66, -4.23694074153900146484e-001) (67, 2.68777340650558471680e-001) (68, 4.68009328842163085938e+000) (69, -5.30958890914916992188e+000) (70, -3.38223129510879516602e-002) (71, -5.84732294082641601562e+000) (72, -1.00808370113372802734e+000) (73, -1.11103206872940063477e-001) (74, 1.50000000000000000000e+003) (75, 1.50000000000000000000e+003) (76, 1.37165927886962890625e+000) (0, -2.54292273521423339844e+000) (1, 4.52202111482620239258e-001) (2, -8.99101972579956054688e-001) (3, 1.06106638908386230469e+000) (4, -4.64239448308944702148e-001) (5, 1.28743395209312438965e-001) (6, 1.21684879064559936523e-001) (7, -8.03004577755928039551e-002) (8, 1.34538143873214721680e-001) (9, -4.12274897098541259766e-001) (10, -4.35081815719604492188e+000) (11, 1.91927318572998046875e+001) (12, 1.50000000000000000000e+003) (13, 1.50000000000000000000e+003) (14, 1.50000000000000000000e+003) (15, 1.50000000000000000000e+003) (16, 1.50000000000000000000e+003) (17, 1.50000000000000000000e+003) (18, -5.22936284542083740234e-001) (19, 2.67626464366912841797e-001) (20, -1.36048233509063720703e+000) (21, 1.56971842050552368164e-001) (22, -1.54704189300537109375e+000) (23, -1.97393745183944702148e-001) (24, 1.61518216133117675781e+000) (25, -7.51217985153198242188e+000) (26, 1.26331596374511718750e+001) (27, 1.50000000000000000000e+003) (28, 1.50000000000000000000e+003) (29, 1.50000000000000000000e+003) (30, 1.50000000000000000000e+003) (31, 1.50000000000000000000e+003) (32, 1.50000000000000000000e+003) (33, 1.50000000000000000000e+003) (34, 4.76396590471267700195e-001) (35, 6.46732971072196960449e-002) (36, 1.53737664222717285156e+000) (37, -1.59985840320587158203e+000) (38, 9.02574121952056884766e-001) (39, -4.82289195060729980469e-001) (40, 1.87097966670989990234e+000) (41, 2.94291764497756958008e-001) (42, -2.00665712356567382812e+000) (43, 1.47648639678955078125e+001) (44, 1.50000000000000000000e+003) (45, 1.50000000000000000000e+003) (46, 1.50000000000000000000e+003) (47, 1.50000000000000000000e+003) (48, 1.50000000000000000000e+003) (49, 1.50000000000000000000e+003) (50, -5.05087435245513916016e-001) (51, -5.72863042354583740234e-001) (52, 5.18070268630981445312e+000) (53, -1.19700126647949218750e+001) (54, 1.37554870605468750000e+002) (55, 1.50000000000000000000e+003) (56, 1.50000000000000000000e+003) (57, 1.50000000000000000000e+003) (58, 1.50000000000000000000e+003) (59, 1.50000000000000000000e+003) (60, 1.50000000000000000000e+003) (61, 1.50000000000000000000e+003) (62, 1.50000000000000000000e+003) (63, 1.50000000000000000000e+003) (64, 1.50000000000000000000e+003) (65, 1.50000000000000000000e+003) (66, 2.51105457544326782227e-001) (67, 3.99916946887969970703e-001) (68, 1.15320041775703430176e-001) (69, 2.81078171730041503906e+000) (70, -9.74463880062103271484e-001) (71, 7.50549510121345520020e-002) (72, 7.79204607009887695312e-001) (73, 2.46700063347816467285e-001) (74, 1.50000000000000000000e+003) (75, 1.50000000000000000000e+003) (76, 3.40557307004928588867e-001) (0, 1.09174776077270507812e+000) (1, -5.35388708114624023438e-001) (2, 8.61477136611938476562e-001) (3, 2.56945610046386718750e+000) (4, -7.73273527622222900391e-001) (5, 4.78440642356872558594e-001) (6, 3.60601037740707397461e-001) (7, 1.23124420642852783203e+000) (8, 1.01131761074066162109e+000) (9, 3.89015102386474609375e+000) (10, -1.13008761405944824219e+000) (11, -7.68714666366577148438e+000) (12, 1.50000000000000000000e+003) (13, 1.50000000000000000000e+003) (14, 1.50000000000000000000e+003) (15, 1.50000000000000000000e+003) (16, 1.50000000000000000000e+003) (17, 1.50000000000000000000e+003) (18, -3.59309136867523193359e-001) (19, 7.61491894721984863281e-001) (20, 2.35104560852050781250e+000) (21, 4.66912955045700073242e-001) (22, 2.22938823699951171875e+000) (23, 2.37001013755798339844e+000) (24, -1.47800612449645996094e+000) (25, 2.80549640655517578125e+001) (26, -2.06711380004882812500e+002) (27, -7.95846069335937500000e+002) (28, 1.50000000000000000000e+003) (29, 1.50000000000000000000e+003) (30, 1.50000000000000000000e+003) (31, 1.50000000000000000000e+003) (32, 1.50000000000000000000e+003) (33, 1.50000000000000000000e+003) (34, 3.49494010210037231445e-001) (35, 1.72196197509765625000e+000) (36, -7.88843214511871337891e-001) (37, 2.53815197944641113281e+000) (38, -1.62620529532432556152e-001) (39, -1.22923302650451660156e+000) (40, -1.78455424308776855469e+000) (41, -7.49329090118408203125e-001) (42, -5.90839922428131103516e-001) (43, -9.05313968658447265625e+000) (44, 1.50000000000000000000e+003) (45, 1.50000000000000000000e+003) (46, 1.50000000000000000000e+003) (47, 1.50000000000000000000e+003) (48, 1.50000000000000000000e+003) (49, 1.50000000000000000000e+003) (50, -1.48989880084991455078e+000) (51, 8.56505990028381347656e-001) (52, -4.91261863708496093750e+000) (53, 4.62128686904907226562e+000) (54, -1.68935413360595703125e+001) (55, 1.50000000000000000000e+003) (56, 1.50000000000000000000e+003) (57, 1.50000000000000000000e+003) (58, 1.50000000000000000000e+003) (59, 1.50000000000000000000e+003) (60, 1.50000000000000000000e+003) (61, 1.50000000000000000000e+003) (62, 1.50000000000000000000e+003) (63, 1.50000000000000000000e+003) (64, 1.50000000000000000000e+003) (65, 1.50000000000000000000e+003) (66, 6.09292924404144287109e-001) (67, 7.50366132706403732300e-003) (68, -1.39137417078018188477e-001) (69, 1.73732733726501464844e+000) (70, 1.10531616210937500000e+000) (71, -2.25909933447837829590e-001) (72, 8.77404332160949707031e-001) (73, 1.04148030281066894531e+000) (74, 1.50000000000000000000e+003) (75, 1.50000000000000000000e+003) (76, -3.45254123210906982422e-001) (0, -6.93447887897491455078e-002) (1, 2.57784783840179443359e-001) (2, 2.85641759634017944336e-001) (3, 2.04836338758468627930e-001) (4, 2.79916763305664062500e-001) (5, -3.04064780473709106445e-001) (6, 1.91514566540718078613e-001) (7, 3.55229750275611877441e-002) (8, 6.24364495277404785156e-001) (9, 2.01796635985374450684e-001) (10, -2.03559780120849609375e+000) (11, 3.39463710784912109375e+000) (12, 1.50000000000000000000e+003) (13, 1.50000000000000000000e+003) (14, 1.50000000000000000000e+003) (15, 1.50000000000000000000e+003) (16, 1.50000000000000000000e+003) (17, 1.50000000000000000000e+003) (18, 6.02510981261730194092e-002) (19, 4.54866528511047363281e-001) (20, -1.11309647560119628906e+000) (21, -4.55862998962402343750e-001) (22, -8.75107467174530029297e-001) (23, 6.58068433403968811035e-002) (24, 3.07479143142700195312e+000) (25, 1.79140731811523437500e+002) (26, 8.64953613281250000000e+002) (27, 1.50000000000000000000e+003) (28, 1.50000000000000000000e+003) (29, 1.50000000000000000000e+003) (30, 1.50000000000000000000e+003) (31, 1.50000000000000000000e+003) (32, 1.50000000000000000000e+003) (33, 1.50000000000000000000e+003) (34, 7.88494229316711425781e-001) (35, 1.28241264820098876953e+000) (36, 2.45337247848510742188e+000) (37, -8.05340334773063659668e-002) (38, 3.62196564674377441406e-001) (39, -6.69286489486694335938e-001) (40, 2.00136095285415649414e-001) (41, 6.90254032611846923828e-001) (42, -4.53645229339599609375e-001) (43, 1.18823745727539062500e+002) (44, 1.50000000000000000000e+003) (45, 1.50000000000000000000e+003) (46, 1.50000000000000000000e+003) (47, 1.50000000000000000000e+003) (48, 1.50000000000000000000e+003) (49, 1.50000000000000000000e+003) (50, 4.58678334951400756836e-001) (51, 1.64475417137145996094e+000) (52, 2.17948317527770996094e+000) (53, 1.43105211257934570312e+001) (54, -1.50000000000000000000e+003) (55, 1.50000000000000000000e+003) (56, 1.50000000000000000000e+003) (57, 1.50000000000000000000e+003) (58, 1.50000000000000000000e+003) (59, 1.50000000000000000000e+003) (60, 1.50000000000000000000e+003) (61, 1.50000000000000000000e+003) (62, 1.50000000000000000000e+003) (63, 1.50000000000000000000e+003) (64, 1.50000000000000000000e+003) (65, 1.50000000000000000000e+003) (66, 1.21884644031524658203e-001) (67, 5.22712409496307373047e-001) (68, 8.95746707916259765625e-001) (69, 7.02771186828613281250e-001) (70, 3.09852421283721923828e-001) (71, 1.00123846530914306641e+000) (72, 8.32674264907836914062e-001) (73, 1.02352845668792724609e+000) (74, 1.50000000000000000000e+003) (75, 1.50000000000000000000e+003) (76, 2.40093320608139038086e-001) (0, -1.16913425922393798828e+000) (1, 6.66321575641632080078e-001) (2, 6.63311004638671875000e-001) (3, 1.68879437446594238281e+000) (4, 2.21363997459411621094e+000) (5, 9.05369520187377929688e-001) (6, 8.36824297904968261719e-001) (7, 1.56396698951721191406e+000) (8, -8.46833288669586181641e-001) (9, 5.76938629150390625000e+000) (10, 1.45514607429504394531e+000) (11, -3.87379570007324218750e+001) (12, 1.50000000000000000000e+003) (13, 1.50000000000000000000e+003) (14, 1.50000000000000000000e+003) (15, 1.50000000000000000000e+003) (16, 1.50000000000000000000e+003) (17, 1.50000000000000000000e+003) (18, 6.15153372287750244141e-001) (19, 1.72635710239410400391e+000) (20, -1.88299342989921569824e-001) (21, 6.46871614456176757812e+000) (22, 7.99791479110717773438e+000) (23, 3.56456542015075683594e+000) (24, -8.26093959808349609375e+000) (25, 5.32531642913818359375e+000) (26, -1.25850954055786132812e+001) (27, -5.99810867309570312500e+001) (28, 1.50000000000000000000e+003) (29, 1.50000000000000000000e+003) (30, 1.50000000000000000000e+003) (31, 1.50000000000000000000e+003) (32, 1.50000000000000000000e+003) (33, 1.50000000000000000000e+003) (34, 1.52660579681396484375e+001) (35, 6.20755255222320556641e-001) (36, 5.07439553737640380859e-001) (37, 5.60940599441528320312e+000) (38, 2.61922478675842285156e+000) (39, -8.48921835422515869141e-001) (40, -5.54317295551300048828e-001) (41, 2.12010455131530761719e+000) (42, 5.28859996795654296875e+000) (43, -1.16518929600715637207e-001) (44, 1.50000000000000000000e+003) (45, 1.50000000000000000000e+003) (46, 1.50000000000000000000e+003) (47, 1.50000000000000000000e+003) (48, 1.50000000000000000000e+003) (49, 1.50000000000000000000e+003) (50, 3.55670619010925292969e+000) (51, 8.47690582275390625000e+000) (52, 7.64010548591613769531e-001) (53, -2.93608283996582031250e+001) (54, 1.50000000000000000000e+003) (55, -1.50000000000000000000e+003) (56, 1.50000000000000000000e+003) (57, 1.50000000000000000000e+003) (58, 1.50000000000000000000e+003) (59, 1.50000000000000000000e+003) (60, 1.50000000000000000000e+003) (61, 1.50000000000000000000e+003) (62, 1.50000000000000000000e+003) (63, 1.50000000000000000000e+003) (64, 1.50000000000000000000e+003) (65, 1.50000000000000000000e+003) (66, 6.76691710948944091797e-001) (67, 1.29269123077392578125e+000) (68, -7.64360308647155761719e-001) (69, 2.72423088550567626953e-001) (70, 3.04958164691925048828e-001) (71, -9.56629395484924316406e-001) (72, -2.49718233942985534668e-001) (73, -1.46591401100158691406e+000) (74, 1.50000000000000000000e+003) (75, 1.50000000000000000000e+003) (76, 5.35497546195983886719e-001) (0, -7.91072607040405273438e-001) (1, 2.95608133077621459961e-001) (2, -7.49649167060852050781e-001) (3, 2.88721418380737304688e+000) (4, -2.61591577529907226562e+000) (5, 9.88102912902832031250e-001) (6, 7.55792200565338134766e-001) (7, -5.92499256134033203125e-001) (8, 1.27839457988739013672e+000) (9, 4.55864667892456054688e+000) (10, 1.49980700683593750000e+003) (11, 1.50000000000000000000e+003) (12, 1.50000000000000000000e+003) (13, 1.50000000000000000000e+003) (14, 1.50000000000000000000e+003) (15, 1.50000000000000000000e+003) (16, 1.50000000000000000000e+003) (17, 1.50000000000000000000e+003) (18, 2.00123476982116699219e+000) (19, -5.31680107116699218750e-001) (20, 1.72808575630187988281e+000) (21, -1.00434148311614990234e+000) (22, 3.99589866399765014648e-001) (23, 1.95113033056259155273e-001) (24, -1.43711166381835937500e+001) (25, -6.17834594726562500000e+002) (26, 1.46888366699218750000e+003) (27, 9.41059265136718750000e+002) (28, 1.50000000000000000000e+003) (29, 1.50000000000000000000e+003) (30, 1.50000000000000000000e+003) (31, 1.50000000000000000000e+003) (32, 1.50000000000000000000e+003) (33, 1.50000000000000000000e+003) (34, 5.95375537872314453125e-001) (35, -2.29671284556388854980e-001) (36, 7.19517111778259277344e-001) (37, 6.62586688995361328125e-002) (38, -1.00791788101196289062e+000) (39, 2.73361355066299438477e-001) (40, -1.81957459449768066406e+000) (41, -1.02546441555023193359e+000) (42, 7.11493492126464843750e-001) (43, -1.48248405456542968750e+001) (44, 1.50000000000000000000e+003) (45, 1.50000000000000000000e+003) (46, 1.50000000000000000000e+003) (47, 1.50000000000000000000e+003) (48, 1.50000000000000000000e+003) (49, 1.50000000000000000000e+003) (50, -2.58065938949584960938e-001) (51, 1.14941704273223876953e+000) (52, 1.95629143714904785156e+000) (53, 2.26344127655029296875e+001) (54, -8.10601501464843750000e+001) (55, -1.50000000000000000000e+003) (56, 1.50000000000000000000e+003) (57, 1.50000000000000000000e+003) (58, 1.50000000000000000000e+003) (59, 1.50000000000000000000e+003) (60, 1.50000000000000000000e+003) (61, 1.50000000000000000000e+003) (62, 1.50000000000000000000e+003) (63, 1.50000000000000000000e+003) (64, 1.50000000000000000000e+003) (65, 1.50000000000000000000e+003) (66, 1.34266853332519531250e+000) (67, -1.21927484869956970215e-001) (68, -1.17399752140045166016e+000) (69, -2.09656238555908203125e+000) (70, -5.88697552680969238281e-001) (71, -1.32616376876831054688e+000) (72, -7.76721537113189697266e-002) (73, 2.87660658359527587891e-001) (74, 1.50000000000000000000e+003) (75, 1.50000000000000000000e+003) (76, -2.51151084899902343750e-001) (0, -1.40797734260559082031e-001) (1, -2.96009588241577148438e+000) (2, -5.74767112731933593750e+000) (3, 5.52207112312316894531e-001) (4, -5.14641189575195312500e+000) (5, -1.24954116344451904297e+000) (6, -2.76699995994567871094e+000) (7, -1.37433481216430664062e+000) (8, -3.38765454292297363281e+000) (9, -8.09020042419433593750e+000) (10, 8.12970066070556640625e+000) (11, -1.83991470336914062500e+002) (12, 1.50000000000000000000e+003) (13, 1.50000000000000000000e+003) (14, 1.50000000000000000000e+003) (15, 1.50000000000000000000e+003) (16, 1.50000000000000000000e+003) (17, 1.50000000000000000000e+003) (18, -1.21111845970153808594e+000) (19, -3.21175128221511840820e-001) (20, -4.17321532964706420898e-001) (21, 3.70000195503234863281e+000) (22, -8.42067480087280273438e-001) (23, -2.59247112274169921875e+000) (24, 1.96372966766357421875e+001) (25, -1.45965112304687500000e+003) (26, 5.21371093750000000000e+002) (27, 1.50000000000000000000e+003) (28, 1.50000000000000000000e+003) (29, 1.50000000000000000000e+003) (30, 1.50000000000000000000e+003) (31, 1.50000000000000000000e+003) (32, 1.50000000000000000000e+003) (33, 1.50000000000000000000e+003) (34, 3.09672474861145019531e+000) (35, 1.81014132499694824219e+000) (36, 5.05741071701049804688e+000) (37, 3.94561767578125000000e-001) (38, 1.55423915386199951172e+000) (39, 1.42086398601531982422e+000) (40, -5.60808420181274414062e-001) (41, -1.12130939960479736328e+000) (42, -8.24381828308105468750e+000) (43, 4.61255073547363281250e+001) (44, 1.50000000000000000000e+003) (45, 1.50000000000000000000e+003) (46, 1.50000000000000000000e+003) (47, 1.50000000000000000000e+003) (48, 1.50000000000000000000e+003) (49, 1.50000000000000000000e+003) (50, -7.75244712829589843750e-001) (51, 1.30959141254425048828e+000) (52, 1.69576263427734375000e+000) (53, 5.76962947845458984375e+000) (54, -6.53627548217773437500e+001) (55, -1.50000000000000000000e+003) (56, 1.50000000000000000000e+003) (57, 1.50000000000000000000e+003) (58, 1.50000000000000000000e+003) (59, 1.50000000000000000000e+003) (60, 1.50000000000000000000e+003) (61, 1.50000000000000000000e+003) (62, 1.50000000000000000000e+003) (63, 1.50000000000000000000e+003) (64, 1.50000000000000000000e+003) (65, 1.50000000000000000000e+003) (66, 1.62975406646728515625e+000) (67, 1.19313172996044158936e-001) (68, -1.63879597187042236328e+000) (69, 1.72055149078369140625e+000) (70, -6.95052966475486755371e-002) (71, 3.37162643671035766602e-001) (72, 1.96501135826110839844e+000) (73, 1.77942013740539550781e+000) (74, 1.50000000000000000000e+003) (75, 1.50000000000000000000e+003) (76, -1.20913118124008178711e-001) (0, -7.67280235886573791504e-002) (1, -1.29358991980552673340e-001) (2, 9.09044668078422546387e-002) (3, 8.62141609191894531250e-001) (4, -3.41407239437103271484e-001) (5, -5.73103874921798706055e-002) (6, 9.21793937683105468750e-001) (7, -5.97104549407958984375e-001) (8, 1.77765399217605590820e-001) (9, -1.19224205613136291504e-001) (10, -3.52988690137863159180e-001) (11, -9.05197143554687500000e+000) (12, 1.50000000000000000000e+003) (13, 1.50000000000000000000e+003) (14, 1.50000000000000000000e+003) (15, 1.50000000000000000000e+003) (16, 1.50000000000000000000e+003) (17, 1.50000000000000000000e+003) (18, 7.55546510219573974609e-001) (19, 1.20831036567687988281e+000) (20, 2.66106128692626953125e-001) (21, 9.85538601875305175781e-001) (22, 1.34955659508705139160e-001) (23, 2.29701042175292968750e+000) (24, 3.23438167572021484375e+000) (25, -4.42878662109375000000e+002) (26, 7.54018188476562500000e+002) (27, -2.95448303222656250000e+002) (28, 1.50000000000000000000e+003) (29, 1.50000000000000000000e+003) (30, 1.50000000000000000000e+003) (31, 1.50000000000000000000e+003) (32, 1.50000000000000000000e+003) (33, 1.50000000000000000000e+003) (34, -5.38694858551025390625e-002) (35, -2.12929710745811462402e-001) (36, 1.35136023163795471191e-001) (37, -3.10773462057113647461e-001) (38, 5.25232911109924316406e-001) (39, 1.58142689615488052368e-002) (40, -5.56990563869476318359e-001) (41, -8.12592059373855590820e-002) (42, 2.48454079031944274902e-001) (43, 7.13083457946777343750e+000) (44, 1.50000000000000000000e+003) (45, 1.50000000000000000000e+003) (46, 1.50000000000000000000e+003) (47, 1.50000000000000000000e+003) (48, 1.50000000000000000000e+003) (49, 1.50000000000000000000e+003) (50, -1.20327484607696533203e+000) (51, -1.63395059108734130859e+000) (52, -1.43610012531280517578e+000) (53, 6.85665750503540039062e+000) (54, -3.38119544982910156250e+001) (55, -1.50000000000000000000e+003) (56, 1.50000000000000000000e+003) (57, 1.50000000000000000000e+003) (58, 1.50000000000000000000e+003) (59, 1.50000000000000000000e+003) (60, 1.50000000000000000000e+003) (61, 1.50000000000000000000e+003) (62, 1.50000000000000000000e+003) (63, 1.50000000000000000000e+003) (64, 1.50000000000000000000e+003) (65, 1.50000000000000000000e+003) (66, -5.15127182006835937500e-001) (67, -2.00344491750001907349e-002) (68, 2.08886712789535522461e-001) (69, 1.92464613914489746094e+000) (70, 1.28343552350997924805e-001) (71, 8.05666208267211914062e-001) (72, -6.18290960788726806641e-001) (73, -1.10139763355255126953e+000) (74, 1.50000000000000000000e+003) (75, 1.50000000000000000000e+003) (76, 6.76046824082732200623e-003) (0, 3.50866079330444335938e-001) (1, 2.00384948402643203735e-002) (2, 4.36055928468704223633e-001) (3, 4.72501665353775024414e-001) (4, 2.39723250269889831543e-001) (5, 1.84680566191673278809e-001) (6, 9.58591759204864501953e-001) (7, 2.84699201583862304688e-001) (8, -2.41491484642028808594e+000) (9, -3.02089095115661621094e+000) (10, -1.46870812988281250000e+003) (11, -1.49745666503906250000e+003) (12, 1.50000000000000000000e+003) (13, 1.50000000000000000000e+003) (14, 1.50000000000000000000e+003) (15, 1.50000000000000000000e+003) (16, 1.50000000000000000000e+003) (17, 1.50000000000000000000e+003) (18, -1.46698689460754394531e+000) (19, -1.09964823722839355469e+000) (20, 7.56235539913177490234e-001) (21, 8.44020068645477294922e-001) (22, 7.49909758567810058594e-001) (23, 1.06366610527038574219e+000) (24, -1.14146173000335693359e+000) (25, -4.90839195251464843750e+001) (26, 8.41662673950195312500e+001) (27, 5.72369918823242187500e+001) (28, 1.50000000000000000000e+003) (29, 1.50000000000000000000e+003) (30, 1.50000000000000000000e+003) (31, 1.50000000000000000000e+003) (32, 1.50000000000000000000e+003) (33, 1.50000000000000000000e+003) (34, 4.51804071664810180664e-001) (35, -1.72064080834388732910e-002) (36, 1.42006862163543701172e+000) (37, -2.03960001468658447266e-001) (38, -1.26016885042190551758e-001) (39, -5.05814015865325927734e-001) (40, 4.18644815683364868164e-001) (41, 1.10926115512847900391e+000) (42, 1.46758401393890380859e+000) (43, 4.61839389801025390625e+000) (44, 1.50000000000000000000e+003) (45, 1.50000000000000000000e+003) (46, 1.50000000000000000000e+003) (47, 1.50000000000000000000e+003) (48, 1.50000000000000000000e+003) (49, 1.50000000000000000000e+003) (50, -8.66834744811058044434e-002) (51, -3.20502191781997680664e-001) (52, -6.10590744018554687500e+000) (53, -1.50000000000000000000e+003) (54, 1.02068469238281250000e+003) (55, -1.50000000000000000000e+003) (56, 1.50000000000000000000e+003) (57, 1.50000000000000000000e+003) (58, 1.50000000000000000000e+003) (59, 1.50000000000000000000e+003) (60, 1.50000000000000000000e+003) (61, 1.50000000000000000000e+003) (62, 1.50000000000000000000e+003) (63, 1.50000000000000000000e+003) (64, 1.50000000000000000000e+003) (65, 1.50000000000000000000e+003) (66, 1.77602708339691162109e-001) (67, -6.54036849737167358398e-002) (68, 6.38648509979248046875e-001) (69, 1.43545019626617431641e+000) (70, -3.63263003528118133545e-002) (71, 9.82206583023071289062e-001) (72, -4.50446605682373046875e-001) (73, -9.67799052596092224121e-002) (74, 1.50000000000000000000e+003) (75, 1.50000000000000000000e+003) (76, 8.46910849213600158691e-002) (0, 2.33762145042419433594e+000) (1, -1.08328354358673095703e+000) (2, 7.56457030773162841797e-001) (3, 1.10319817066192626953e+000) (4, -2.94742882251739501953e-001) (5, 1.95167577266693115234e+000) (6, 8.91137197613716125488e-002) (7, 1.59660482406616210938e+000) (8, 6.87593877315521240234e-001) (9, 1.46809911727905273438e+000) (10, 1.61417052149772644043e-001) (11, 2.10343341827392578125e+001) (12, 1.50000000000000000000e+003) (13, 1.50000000000000000000e+003) (14, 1.50000000000000000000e+003) (15, 1.50000000000000000000e+003) (16, 1.50000000000000000000e+003) (17, 1.50000000000000000000e+003) (18, 5.87758779525756835938e-001) (19, -7.67709612846374511719e-001) (20, -2.70011425018310546875e-001) (21, -6.87431752681732177734e-001) (22, 3.18023383617401123047e-001) (23, 2.03157877922058105469e+000) (24, -2.75019192695617675781e+000) (25, -1.71047103881835937500e+002) (26, 3.26250213623046875000e+002) (27, -4.03043975830078125000e+002) (28, 1.50000000000000000000e+003) (29, 1.50000000000000000000e+003) (30, 1.50000000000000000000e+003) (31, 1.50000000000000000000e+003) (32, 1.50000000000000000000e+003) (33, 1.50000000000000000000e+003) (34, 3.61696183681488037109e-001) (35, -1.87195435166358947754e-001) (36, 1.52815163135528564453e-001) (37, 2.20542240142822265625e+000) (38, 1.39870226383209228516e-001) (39, 1.63928940892219543457e-001) (40, 2.18466305732727050781e+000) (41, 1.08721768856048583984e+000) (42, -1.22344923019409179688e+000) (43, 9.52494144439697265625e+000) (44, 1.50000000000000000000e+003) (45, 1.50000000000000000000e+003) (46, 1.50000000000000000000e+003) (47, 1.50000000000000000000e+003) (48, 1.50000000000000000000e+003) (49, 1.50000000000000000000e+003) (50, -5.36205410957336425781e-001) (51, 7.02200055122375488281e-001) (52, 6.97896838188171386719e-001) (53, 4.97896718978881835938e+000) (54, -3.40642929077148437500e+001) (55, -1.50000000000000000000e+003) (56, 1.50000000000000000000e+003) (57, 1.50000000000000000000e+003) (58, 1.50000000000000000000e+003) (59, 1.50000000000000000000e+003) (60, 1.50000000000000000000e+003) (61, 1.50000000000000000000e+003) (62, 1.50000000000000000000e+003) (63, 1.50000000000000000000e+003) (64, 1.50000000000000000000e+003) (65, 1.50000000000000000000e+003) (66, 8.67047607898712158203e-001) (67, -7.55997300148010253906e-001) (68, 3.63863140344619750977e-001) (69, 1.61006391048431396484e+000) (70, -1.21976172924041748047e+000) (71, 4.28817182779312133789e-001) (72, 1.86809873580932617188e+000) (73, -6.96825265884399414062e-001) (74, 1.50000000000000000000e+003) (75, 1.50000000000000000000e+003) (76, 1.12445093691349029541e-002) (0, -6.19206809997558593750e+000) (1, 2.75243103504180908203e-001) (2, 3.57645988464355468750e+000) (3, -3.51153898239135742188e+000) (4, -1.11867916584014892578e+000) (5, 1.62800937891006469727e-001) (6, -5.39338445663452148438e+000) (7, -5.80846691131591796875e+000) (8, 1.05181789398193359375e+001) (9, 1.50000000000000000000e+003) (10, 1.50000000000000000000e+003) (11, 1.50000000000000000000e+003) (12, 1.50000000000000000000e+003) (13, 1.50000000000000000000e+003) (14, 1.50000000000000000000e+003) (15, 1.50000000000000000000e+003) (16, 1.50000000000000000000e+003) (17, 1.50000000000000000000e+003) (18, 2.31389236450195312500e+000) (19, -4.68223762512207031250e+000) (20, 3.46109127998352050781e+000) (21, -8.72779750823974609375e+000) (22, 3.51006507873535156250e+000) (23, -5.20757532119750976562e+000) (24, 2.23236370086669921875e+001) (25, -4.91478614807128906250e+001) (26, -8.65133239746093750000e+002) (27, -1.50000000000000000000e+003) (28, 1.50000000000000000000e+003) (29, 1.50000000000000000000e+003) (30, 1.50000000000000000000e+003) (31, 1.50000000000000000000e+003) (32, 1.50000000000000000000e+003) (33, 1.50000000000000000000e+003) (34, 4.26635265350341796875e+000) (35, 1.21668376922607421875e+001) (36, -2.23028373718261718750e+000) (37, -9.96954202651977539062e-001) (38, -1.73553886413574218750e+001) (39, -2.25674891471862792969e+000) (40, 7.44090080261230468750e+000) (41, 2.47686338424682617188e+000) (42, 5.62648630142211914062e+000) (43, 1.14761547851562500000e+003) (44, 1.50000000000000000000e+003) (45, 1.50000000000000000000e+003) (46, 1.50000000000000000000e+003) (47, 1.50000000000000000000e+003) (48, 1.50000000000000000000e+003) (49, 1.50000000000000000000e+003) (50, 6.65289402008056640625e+000) (51, -1.19555020332336425781e+000) (52, 9.43742275238037109375e+000) (53, -7.02284526824951171875e+000) (54, -2.78151885986328125000e+002) (55, 1.50000000000000000000e+003) (56, 1.50000000000000000000e+003) (57, 1.50000000000000000000e+003) (58, 1.50000000000000000000e+003) (59, 1.50000000000000000000e+003) (60, 1.50000000000000000000e+003) (61, 1.50000000000000000000e+003) (62, 1.50000000000000000000e+003) (63, 1.50000000000000000000e+003) (64, 1.50000000000000000000e+003) (65, 1.50000000000000000000e+003) (66, 6.22321796417236328125e+000) (67, 4.35180187225341796875e+000) (68, -4.11945676803588867188e+000) (69, -1.23175784945487976074e-001) (70, 3.58998632431030273438e+000) (71, -6.51520967483520507812e-001) (72, 1.00495964288711547852e-002) (73, 2.33333897590637207031e+000) (74, 1.50000000000000000000e+003) (75, 1.50000000000000000000e+003) (76, 1.58278405666351318359e+000) (0, -1.46652269363403320312e+000) (1, -1.15355980396270751953e+000) (2, -9.47053623199462890625e+000) (3, 2.59417057037353515625e-001) (4, -1.59066486358642578125e+000) (5, 6.18990063667297363281e-001) (6, 1.78782314062118530273e-001) (7, 1.14597070217132568359e+000) (8, -1.59543790817260742188e+001) (9, -4.50936660766601562500e+001) (10, -1.48463793945312500000e+003) (11, 2.73985473632812500000e+002) (12, 1.50000000000000000000e+003) (13, 1.50000000000000000000e+003) (14, 1.50000000000000000000e+003) (15, 1.50000000000000000000e+003) (16, 1.50000000000000000000e+003) (17, 1.50000000000000000000e+003) (18, -2.12358856201171875000e+000) (19, -1.21988172531127929688e+001) (20, -2.57482433319091796875e+000) (21, -3.43443918228149414062e+000) (22, -6.70590591430664062500e+000) (23, 1.94993412494659423828e+000) (24, 9.85319423675537109375e+000) (25, 3.99916305541992187500e+001) (26, -8.55094757080078125000e+001) (27, 1.79132629394531250000e+002) (28, 1.50000000000000000000e+003) (29, 1.50000000000000000000e+003) (30, 1.50000000000000000000e+003) (31, 1.50000000000000000000e+003) (32, 1.50000000000000000000e+003) (33, 1.50000000000000000000e+003) (34, 4.18921470642089843750e-001) (35, 9.24564123153686523438e-001) (36, 8.97992372512817382812e-001) (37, -1.27208375930786132812e+000) (38, 1.16562891006469726562e+000) (39, -1.09162056446075439453e+000) (40, -2.49223041534423828125e+000) (41, -1.74856984615325927734e+000) (42, -4.33620834350585937500e+000) (43, -1.47792150878906250000e+003) (44, 1.50000000000000000000e+003) (45, 1.50000000000000000000e+003) (46, 1.50000000000000000000e+003) (47, 1.50000000000000000000e+003) (48, 1.50000000000000000000e+003) (49, 1.50000000000000000000e+003) (50, -2.69822525978088378906e+000) (51, -2.30763454437255859375e+001) (52, -1.20672277832031250000e+003) (53, -1.50000000000000000000e+003) (54, 3.06171630859375000000e+002) (55, -1.50000000000000000000e+003) (56, 1.50000000000000000000e+003) (57, 1.50000000000000000000e+003) (58, 1.50000000000000000000e+003) (59, 1.50000000000000000000e+003) (60, 1.50000000000000000000e+003) (61, 1.50000000000000000000e+003) (62, 1.50000000000000000000e+003) (63, 1.50000000000000000000e+003) (64, 1.50000000000000000000e+003) (65, 1.50000000000000000000e+003) (66, -2.81853258609771728516e-001) (67, -9.96798090636730194092e-003) (68, 3.98603111505508422852e-001) (69, 2.41734888404607772827e-002) (70, -3.21471184492111206055e-001) (71, 1.02536368370056152344e+000) (72, -1.32685434073209762573e-002) (73, -1.57150067389011383057e-002) (74, 1.50000000000000000000e+003) (75, 1.50000000000000000000e+003) (76, -5.17906665802001953125e-001) (0, -7.97503471374511718750e-001) (1, 5.04340350627899169922e-001) (2, 2.20201706886291503906e+000) (3, 1.74346876144409179688e+000) (4, 7.60688602924346923828e-001) (5, 1.85176315307617187500e+001) (6, 3.28702092170715332031e+000) (7, -3.11964511871337890625e+000) (8, 3.63278222084045410156e+000) (9, 1.49714025878906250000e+003) (10, 5.93020446777343750000e+002) (11, 1.50000000000000000000e+003) (12, 1.50000000000000000000e+003) (13, 1.50000000000000000000e+003) (14, 1.50000000000000000000e+003) (15, 1.50000000000000000000e+003) (16, 1.50000000000000000000e+003) (17, 1.50000000000000000000e+003) (18, 2.94011056423187255859e-001) (19, 2.42400217056274414062e+000) (20, -8.54474008083343505859e-002) (21, -3.95962297916412353516e-001) (22, 1.77000916004180908203e+000) (23, 6.40794277191162109375e+000) (24, -2.20324916839599609375e+001) (25, 5.63062683105468750000e+002) (26, 1.49963024902343750000e+003) (27, 1.50000000000000000000e+003) (28, 1.50000000000000000000e+003) (29, 1.50000000000000000000e+003) (30, 1.50000000000000000000e+003) (31, 1.50000000000000000000e+003) (32, 1.50000000000000000000e+003) (33, 1.50000000000000000000e+003) (34, -6.54221343994140625000e+000) (35, 4.09996032714843750000e+000) (36, 8.52047195434570312500e+001) (37, -5.20256757736206054688e-001) (38, 4.80674314498901367188e+000) (39, 6.67512464523315429688e+000) (40, -5.65228937193751335144e-003) (41, 3.20815420150756835938e+000) (42, -6.08465814590454101562e+000) (43, 2.81938720703125000000e+002) (44, 1.50000000000000000000e+003) (45, 1.50000000000000000000e+003) (46, 1.50000000000000000000e+003) (47, 1.50000000000000000000e+003) (48, 1.50000000000000000000e+003) (49, 1.50000000000000000000e+003) (50, 5.14620006084442138672e-001) (51, -1.46492391824722290039e-001) (52, -2.11590266227722167969e+000) (53, -1.74811542034149169922e-001) (54, -7.22616348266601562500e+001) (55, -1.50000000000000000000e+003) (56, 1.50000000000000000000e+003) (57, 1.50000000000000000000e+003) (58, 1.50000000000000000000e+003) (59, 1.50000000000000000000e+003) (60, 1.50000000000000000000e+003) (61, 1.50000000000000000000e+003) (62, 1.50000000000000000000e+003) (63, 1.50000000000000000000e+003) (64, 1.50000000000000000000e+003) (65, 1.50000000000000000000e+003) (66, 8.69854164123535156250e+000) (67, -6.45199954509735107422e-001) (68, -2.11328721046447753906e+000) (69, -1.72832891345024108887e-001) (70, 6.06627702713012695312e-001) (71, -1.08425712585449218750e+000) (72, -1.18712222576141357422e+000) (73, 4.36964571475982666016e-001) (74, 1.50000000000000000000e+003) (75, 1.50000000000000000000e+003) (76, 4.51766937971115112305e-001) (0, 6.55709207057952880859e-001) (1, 4.52761858701705932617e-001) (2, -3.51603597402572631836e-001) (3, -8.03712427616119384766e-001) (4, 1.14571738243103027344e+000) (5, 9.88080203533172607422e-001) (6, -1.10870528221130371094e+000) (7, 2.34328612685203552246e-001) (8, 3.30975508689880371094e+000) (9, 2.93858051300048828125e+001) (10, 1.58750000000000000000e+002) (11, 1.50000000000000000000e+003) (12, 1.50000000000000000000e+003) (13, 1.50000000000000000000e+003) (14, 1.50000000000000000000e+003) (15, 1.50000000000000000000e+003) (16, 1.50000000000000000000e+003) (17, 1.50000000000000000000e+003) (18, 9.29113402962684631348e-002) (19, -2.00718507170677185059e-001) (20, -2.83914148807525634766e-001) (21, 7.77980864048004150391e-001) (22, 4.51097774505615234375e+000) (23, 1.41470825672149658203e+000) (24, -8.96463108062744140625e+000) (25, 1.49714517593383789062e+001) (26, 2.30334072113037109375e+001) (27, -2.65760009765625000000e+002) (28, 1.50000000000000000000e+003) (29, 1.50000000000000000000e+003) (30, 1.50000000000000000000e+003) (31, 1.50000000000000000000e+003) (32, 1.50000000000000000000e+003) (33, 1.50000000000000000000e+003) (34, -2.04503750801086425781e+000) (35, 2.25328817963600158691e-001) (36, 3.75982522964477539062e-001) (37, -2.57072067260742187500e+000) (38, 9.19583380222320556641e-001) (39, -7.59718000888824462891e-001) (40, 1.45349287986755371094e+000) (41, -2.06068202853202819824e-001) (42, -6.19105517864227294922e-001) (43, 8.71231079101562500000e+000) (44, 1.50000000000000000000e+003) (45, 1.50000000000000000000e+003) (46, 1.50000000000000000000e+003) (47, 1.50000000000000000000e+003) (48, 1.50000000000000000000e+003) (49, 1.50000000000000000000e+003) (50, -7.76118636131286621094e-002) (51, -1.88194727897644042969e+000) (52, -2.45024085044860839844e-001) (53, 9.45373725891113281250e+000) (54, -4.10343666076660156250e+001) (55, -1.50000000000000000000e+003) (56, 1.50000000000000000000e+003) (57, 1.50000000000000000000e+003) (58, 1.50000000000000000000e+003) (59, 1.50000000000000000000e+003) (60, 1.50000000000000000000e+003) (61, 1.50000000000000000000e+003) (62, 1.50000000000000000000e+003) (63, 1.50000000000000000000e+003) (64, 1.50000000000000000000e+003) (65, 1.50000000000000000000e+003) (66, 1.55260026454925537109e-001) (67, 7.19466626644134521484e-001) (68, 8.00083220005035400391e-001) (69, -1.05324327945709228516e+000) (70, 1.40039026737213134766e-001) (71, 6.71850383281707763672e-001) (72, 8.87415185570716857910e-002) (73, -1.45824539661407470703e+000) (74, 1.50000000000000000000e+003) (75, 1.50000000000000000000e+003) (76, 4.03268188238143920898e-001) (0, -1.80964374542236328125e+001) (1, -2.13834261894226074219e+000) (2, -5.21845960617065429688e+000) (3, 3.20892190933227539062e+000) (4, -1.68401694297790527344e+000) (5, -1.26482105255126953125e+000) (6, -2.60899841785430908203e-001) (7, 2.56118345260620117188e+000) (8, 3.64392256736755371094e+000) (9, 9.94144821166992187500e+000) (10, 3.57644081115722656250e+000) (11, 1.31068582534790039062e+001) (12, 1.50000000000000000000e+003) (13, 1.50000000000000000000e+003) (14, 1.50000000000000000000e+003) (15, 1.50000000000000000000e+003) (16, 1.50000000000000000000e+003) (17, 1.50000000000000000000e+003) (18, 8.59696686267852783203e-001) (19, 4.26161885261535644531e-001) (20, 2.43994283676147460938e+000) (21, -3.03945600986480712891e-001) (22, 4.67861890792846679688e+000) (23, 3.19612383842468261719e+000) (24, -7.52170848846435546875e+000) (25, 2.49052829742431640625e+001) (26, 1.58279937744140625000e+002) (27, 9.38368347167968750000e+002) (28, 1.50000000000000000000e+003) (29, 1.50000000000000000000e+003) (30, 1.50000000000000000000e+003) (31, 1.50000000000000000000e+003) (32, 1.50000000000000000000e+003) (33, 1.50000000000000000000e+003) (34, -4.42936325073242187500e+000) (35, 4.59914112091064453125e+000) (36, 4.58083868026733398438e+000) (37, 1.43359506130218505859e+000) (38, 1.81604933738708496094e+000) (39, 2.46876263618469238281e+000) (40, 1.54089581966400146484e+000) (41, 5.00989556312561035156e-001) (42, 4.21313428878784179688e+000) (43, -6.13002510070800781250e+001) (44, 1.50000000000000000000e+003) (45, 1.50000000000000000000e+003) (46, 1.50000000000000000000e+003) (47, 1.50000000000000000000e+003) (48, 1.50000000000000000000e+003) (49, 1.50000000000000000000e+003) (50, -1.10454948425292968750e+002) (51, -1.49421398925781250000e+003) (52, 3.35674652099609375000e+002) (53, 8.07532165527343750000e+002) (54, -1.44094042968750000000e+003) (55, 1.50000000000000000000e+003) (56, 1.50000000000000000000e+003) (57, 1.50000000000000000000e+003) (58, 1.50000000000000000000e+003) (59, 1.50000000000000000000e+003) (60, 1.50000000000000000000e+003) (61, 1.50000000000000000000e+003) (62, 1.50000000000000000000e+003) (63, 1.50000000000000000000e+003) (64, 1.50000000000000000000e+003) (65, 1.50000000000000000000e+003) (66, -2.02429771423339843750e+000) (67, -3.41108322143554687500e-001) (68, 2.03300595283508300781e-001) (69, 9.31935757398605346680e-002) (70, -3.40586400032043457031e+000) (71, 2.16391301155090332031e+000) (72, 1.79572987556457519531e+000) (73, -8.34619581699371337891e-001) (74, 1.50000000000000000000e+003) (75, 1.50000000000000000000e+003) (76, 1.25607240200042724609e+000) (0, 2.14200000762939453125e+001) (1, 1.42404779791831970215e-001) (2, 2.03685593605041503906e+000) (3, -2.08604526519775390625e+000) (4, -5.10463142395019531250e+000) (5, -1.29780721664428710938e+000) (6, 3.12360787391662597656e+000) (7, 1.51858353614807128906e+000) (8, 5.60997962951660156250e+000) (9, 8.85868072509765625000e+000) (10, 1.13079986572265625000e+001) (11, -1.60885868072509765625e+001) (12, 1.50000000000000000000e+003) (13, 1.50000000000000000000e+003) (14, 1.50000000000000000000e+003) (15, 1.50000000000000000000e+003) (16, 1.50000000000000000000e+003) (17, 1.50000000000000000000e+003) (18, 1.26372871398925781250e+001) (19, -7.20035076141357421875e+000) (20, 2.96791400909423828125e+001) (21, 1.04306707382202148438e+001) (22, -1.43030710220336914062e+001) (23, 2.15289249420166015625e+001) (24, 8.66666503906250000000e+002) (25, 1.50000000000000000000e+003) (26, 1.10363195800781250000e+003) (27, -6.23250061035156250000e+002) (28, 1.50000000000000000000e+003) (29, 1.50000000000000000000e+003) (30, 1.50000000000000000000e+003) (31, 1.50000000000000000000e+003) (32, 1.50000000000000000000e+003) (33, 1.50000000000000000000e+003) (34, 7.02792358398437500000e+000) (35, -1.64586007595062255859e-001) (36, 1.52370033264160156250e+001) (37, -5.69559001922607421875e+000) (38, -3.06998014450073242188e+000) (39, 3.77638969421386718750e+001) (40, 7.37964706420898437500e+001) (41, 3.96535336971282958984e-001) (42, 1.38496942520141601562e+001) (43, 2.26056884765625000000e+002) (44, 1.50000000000000000000e+003) (45, 1.50000000000000000000e+003) (46, 1.50000000000000000000e+003) (47, 1.50000000000000000000e+003) (48, 1.50000000000000000000e+003) (49, 1.50000000000000000000e+003) (50, -3.73562598228454589844e+000) (51, -1.75398750305175781250e+001) (52, 1.02927961349487304688e+001) (53, -7.01819076538085937500e+001) (54, 1.50000000000000000000e+003) (55, 7.40800048828125000000e+002) (56, 1.50000000000000000000e+003) (57, 1.50000000000000000000e+003) (58, 1.50000000000000000000e+003) (59, 1.50000000000000000000e+003) (60, 1.50000000000000000000e+003) (61, 1.50000000000000000000e+003) (62, 1.50000000000000000000e+003) (63, 1.50000000000000000000e+003) (64, 1.50000000000000000000e+003) (65, 1.50000000000000000000e+003) (66, 3.36223316192626953125e+000) (67, -7.87818551063537597656e-001) (68, 8.29935967922210693359e-001) (69, 1.91208517551422119141e+000) (70, -4.91112422943115234375e+000) (71, 9.35919821262359619141e-001) (72, 7.15975821018218994141e-001) (73, -5.89488124847412109375e+000) (74, 1.50000000000000000000e+003) (75, 1.50000000000000000000e+003) (76, 1.49930551648139953613e-001) (0, -2.13686323165893554688e+000) (1, -1.31512713432312011719e+000) (2, -2.55960988998413085938e+000) (3, 3.67161655426025390625e+000) (4, 1.53583967685699462891e+000) (5, 9.89115333557128906250e+000) (6, 2.56153631210327148438e+000) (7, -4.23715877532958984375e+000) (8, 4.27948594093322753906e-001) (9, -1.03971118164062500000e+003) (10, -1.48043164062500000000e+003) (11, -6.41551208496093750000e+002) (12, 1.50000000000000000000e+003) (13, 1.50000000000000000000e+003) (14, 1.50000000000000000000e+003) (15, 1.50000000000000000000e+003) (16, 1.50000000000000000000e+003) (17, 1.50000000000000000000e+003) (18, 1.50279200077056884766e+000) (19, 5.48866152763366699219e-001) (20, 4.07276451587677001953e-001) (21, 2.92376542091369628906e+000) (22, 7.67924606800079345703e-001) (23, -1.52010118961334228516e+000) (24, 7.34000301361083984375e+000) (25, -1.44394238281250000000e+003) (26, 2.21584075927734375000e+002) (27, 9.41778442382812500000e+002) (28, 1.50000000000000000000e+003) (29, 1.50000000000000000000e+003) (30, 1.50000000000000000000e+003) (31, 1.50000000000000000000e+003) (32, 1.50000000000000000000e+003) (33, 1.50000000000000000000e+003) (34, 1.82543408870697021484e+000) (35, -1.65693700313568115234e+000) (36, -4.99907684326171875000e+001) (37, -3.33016014099121093750e+000) (38, -5.96712732315063476562e+000) (39, -3.78876914978027343750e+001) (40, -1.91934356689453125000e+001) (41, -1.79384374618530273438e+000) (42, -1.02401763200759887695e-001) (43, 1.96674175262451171875e+001) (44, 1.50000000000000000000e+003) (45, 1.50000000000000000000e+003) (46, 1.50000000000000000000e+003) (47, 1.50000000000000000000e+003) (48, 1.50000000000000000000e+003) (49, 1.50000000000000000000e+003) (50, -1.05615317821502685547e+000) (51, 4.43265962600708007812e+000) (52, -2.26197886466979980469e+000) (53, -1.97496616840362548828e+000) (54, -1.50000000000000000000e+003) (55, -1.50000000000000000000e+003) (56, 1.50000000000000000000e+003) (57, 1.50000000000000000000e+003) (58, 1.50000000000000000000e+003) (59, 1.50000000000000000000e+003) (60, 1.50000000000000000000e+003) (61, 1.50000000000000000000e+003) (62, 1.50000000000000000000e+003) (63, 1.50000000000000000000e+003) (64, 1.50000000000000000000e+003) (65, 1.50000000000000000000e+003) (66, -7.03031873703002929688e+000) (67, -5.82666444778442382812e+000) (68, 8.46932902932167053223e-002) (69, 2.40963622927665710449e-001) (70, -4.55466806888580322266e-001) (71, 2.38891646265983581543e-001) (72, -3.07863295078277587891e-001) (73, -6.10496163368225097656e-001) (74, 1.50000000000000000000e+003) (75, 1.50000000000000000000e+003) (76, -9.83010381460189819336e-002) (0, -1.27873229980468750000e+001) (1, -1.91752880811691284180e-001) (2, -1.83454155921936035156e+000) (3, -3.13763558864593505859e-001) (4, -8.32776069641113281250e-001) (5, -1.11302018165588378906e+000) (6, -4.30313467979431152344e-001) (7, -2.18875956535339355469e+000) (8, -3.20512443780899047852e-001) (9, -1.01429271697998046875e+000) (10, -1.53371500968933105469e+000) (11, 1.50000000000000000000e+003) (12, 1.50000000000000000000e+003) (13, 1.50000000000000000000e+003) (14, 1.50000000000000000000e+003) (15, 1.50000000000000000000e+003) (16, 1.50000000000000000000e+003) (17, 1.50000000000000000000e+003) (18, 4.22899544239044189453e-001) (19, 1.30005025863647460938e+000) (20, 7.84221768379211425781e-001) (21, 2.47792929410934448242e-001) (22, 1.44097936153411865234e+000) (23, -4.35721687972545623779e-002) (24, 3.43256354331970214844e+000) (25, 2.27831668853759765625e+001) (26, 9.45801925659179687500e+001) (27, 1.50000000000000000000e+003) (28, 1.50000000000000000000e+003) (29, 1.50000000000000000000e+003) (30, 1.50000000000000000000e+003) (31, 1.50000000000000000000e+003) (32, 1.50000000000000000000e+003) (33, 1.50000000000000000000e+003) (34, -2.64977574348449707031e+000) (35, 7.29932963848114013672e-001) (36, -7.51161193847656250000e+000) (37, 2.21695876121520996094e+000) (38, 4.13640767335891723633e-001) (39, -3.36402392387390136719e+000) (40, -1.12706255912780761719e+000) (41, -7.98682391643524169922e-001) (42, -7.04763126373291015625e+000) (43, 3.78132313489913940430e-001) (44, 1.50000000000000000000e+003) (45, 1.50000000000000000000e+003) (46, 1.50000000000000000000e+003) (47, 1.50000000000000000000e+003) (48, 1.50000000000000000000e+003) (49, 1.50000000000000000000e+003) (50, 1.53722643852233886719e+000) (51, -1.57389593124389648438e+000) (52, 9.44844126701354980469e-001) (53, -3.63098239898681640625e+000) (54, 2.68504447937011718750e+001) (55, 1.50000000000000000000e+003) (56, 1.50000000000000000000e+003) (57, 1.50000000000000000000e+003) (58, 1.50000000000000000000e+003) (59, 1.50000000000000000000e+003) (60, 1.50000000000000000000e+003) (61, 1.50000000000000000000e+003) (62, 1.50000000000000000000e+003) (63, 1.50000000000000000000e+003) (64, 1.50000000000000000000e+003) (65, 1.50000000000000000000e+003) (66, 3.65636444091796875000e+001) (67, 1.09098565578460693359e+000) (68, 1.35959669947624206543e-001) (69, 1.45104214549064636230e-001) (70, 2.59859025478363037109e-001) (71, 1.39050632715225219727e-001) (72, 2.17175140976905822754e-001) (73, 1.13850802183151245117e-001) (74, 1.50000000000000000000e+003) (75, 1.50000000000000000000e+003) (76, -1.16831886768341064453e+000) (0, -2.50541114807128906250e+000) (1, 1.03670632839202880859e+000) (2, -2.74840682744979858398e-001) (3, -9.32408630847930908203e-001) (4, 1.79243195056915283203e+000) (5, 4.00518238544464111328e-001) (6, -5.20234298706054687500e+000) (7, -2.15328121185302734375e+000) (8, -2.52476453781127929688e+000) (9, -8.61048507690429687500e+000) (10, 9.61357688903808593750e+000) (11, -2.91953392028808593750e+001) (12, 1.50000000000000000000e+003) (13, 1.50000000000000000000e+003) (14, 1.50000000000000000000e+003) (15, 1.50000000000000000000e+003) (16, 1.50000000000000000000e+003) (17, 1.50000000000000000000e+003) (18, -2.80747622251510620117e-001) (19, -1.37308746576309204102e-001) (20, 3.61355721950531005859e-001) (21, 3.48430126905441284180e-002) (22, 1.75383460521697998047e+000) (23, 9.10211145877838134766e-001) (24, -4.80735826492309570312e+000) (25, -5.52002067565917968750e+001) (26, -2.02727386474609375000e+002) (27, 1.04646679687500000000e+003) (28, 1.50000000000000000000e+003) (29, 1.50000000000000000000e+003) (30, 1.50000000000000000000e+003) (31, 1.50000000000000000000e+003) (32, 1.50000000000000000000e+003) (33, 1.50000000000000000000e+003) (34, 4.49051332473754882812e+000) (35, -3.05623054504394531250e+000) (36, -2.02445268630981445312e+000) (37, 6.25053215026855468750e+000) (38, 6.09478235244750976562e+000) (39, -2.91951805353164672852e-001) (40, 2.69811096191406250000e+001) (41, 9.39651966094970703125e+000) (42, 4.83652782440185546875e+000) (43, -1.34393966674804687500e+002) (44, 1.50000000000000000000e+003) (45, 1.50000000000000000000e+003) (46, 1.50000000000000000000e+003) (47, 1.50000000000000000000e+003) (48, 1.50000000000000000000e+003) (49, 1.50000000000000000000e+003) (50, 2.32032489776611328125e+000) (51, 3.76224905252456665039e-001) (52, 1.71157133579254150391e+000) (53, -8.30726814270019531250e+000) (54, 1.74704711914062500000e+002) (55, -1.50000000000000000000e+003) (56, 1.50000000000000000000e+003) (57, 1.50000000000000000000e+003) (58, 1.50000000000000000000e+003) (59, 1.50000000000000000000e+003) (60, 1.50000000000000000000e+003) (61, 1.50000000000000000000e+003) (62, 1.50000000000000000000e+003) (63, 1.50000000000000000000e+003) (64, 1.50000000000000000000e+003) (65, 1.50000000000000000000e+003) (66, -3.79109293222427368164e-001) (67, 9.72320914268493652344e-001) (68, 4.64058309793472290039e-001) (69, -6.08684360980987548828e-001) (70, -1.18546597659587860107e-001) (71, 5.41243135929107666016e-001) (72, 2.91507574729621410370e-003) (73, 4.67571690678596496582e-002) (74, 1.50000000000000000000e+003) (75, 1.50000000000000000000e+003) (76, 9.80537831783294677734e-001) (0, 2.09465646743774414062e+000) (1, 3.62245798110961914062e-001) (2, 3.35337328910827636719e+000) (3, 2.17503428459167480469e-001) (4, 2.49580430984497070312e+000) (5, 2.20460891723632812500e+000) (6, -2.47982716560363769531e+000) (7, 1.76124513149261474609e+000) (8, 5.61288642883300781250e+000) (9, 7.70101852416992187500e+001) (10, -9.08752288818359375000e+001) (11, 7.67017269134521484375e+000) (12, 1.50000000000000000000e+003) (13, 1.50000000000000000000e+003) (14, 1.50000000000000000000e+003) (15, 1.50000000000000000000e+003) (16, 1.50000000000000000000e+003) (17, 1.50000000000000000000e+003) (18, 5.24052798748016357422e-001) (19, -2.28163170814514160156e+000) (20, -1.76976668834686279297e+000) (21, -1.51819622516632080078e+000) (22, 3.47242206335067749023e-001) (23, 1.13013827800750732422e+000) (24, 8.54151248931884765625e-001) (25, 1.50000000000000000000e+003) (26, 1.22266943359375000000e+003) (27, -1.50000000000000000000e+003) (28, 1.50000000000000000000e+003) (29, 1.50000000000000000000e+003) (30, 1.50000000000000000000e+003) (31, 1.50000000000000000000e+003) (32, 1.50000000000000000000e+003) (33, 1.50000000000000000000e+003) (34, -3.96776652336120605469e+000) (35, 2.14415621757507324219e+000) (36, -2.15521669387817382812e+000) (37, 2.06160187721252441406e+000) (38, -4.09379541873931884766e-001) (39, 1.72780597209930419922e+000) (40, 3.42072510719299316406e+000) (41, 8.12495589256286621094e-001) (42, -1.64922332763671875000e+000) (43, 1.96675693988800048828e+000) (44, 1.50000000000000000000e+003) (45, 1.50000000000000000000e+003) (46, 1.50000000000000000000e+003) (47, 1.50000000000000000000e+003) (48, 1.50000000000000000000e+003) (49, 1.50000000000000000000e+003) (50, 9.31002572178840637207e-002) (51, 2.93944644927978515625e+000) (52, -1.58275020122528076172e+000) (53, -1.26703424453735351562e+001) (54, 1.31186752319335937500e+002) (55, -1.50000000000000000000e+003) (56, 1.50000000000000000000e+003) (57, 1.50000000000000000000e+003) (58, 1.50000000000000000000e+003) (59, 1.50000000000000000000e+003) (60, 1.50000000000000000000e+003) (61, 1.50000000000000000000e+003) (62, 1.50000000000000000000e+003) (63, 1.50000000000000000000e+003) (64, 1.50000000000000000000e+003) (65, 1.50000000000000000000e+003) (66, 4.23186588287353515625e+000) (67, 4.25871312618255615234e-001) (68, 3.78547757863998413086e-001) (69, 1.52728259563446044922e+000) (70, 2.98266816139221191406e+000) (71, 1.31443846225738525391e+000) (72, 9.43265706300735473633e-002) (73, 1.79346716403961181641e+000) (74, 1.50000000000000000000e+003) (75, 1.50000000000000000000e+003) (76, 2.86771357059478759766e-001) (0, -7.41175765991210937500e+001) (1, 2.43839621543884277344e-001) (2, -1.92556634545326232910e-001) (3, -1.35846340656280517578e+000) (4, -1.47646343708038330078e+000) (5, -1.35618782043457031250e+000) (6, -2.32996487617492675781e+000) (7, -1.88577902317047119141e+000) (8, -9.23160731792449951172e-001) (9, -3.44516706466674804688e+000) (10, 2.08526778221130371094e+000) (11, 3.84657363891601562500e+001) (12, 1.50000000000000000000e+003) (13, 1.50000000000000000000e+003) (14, 1.50000000000000000000e+003) (15, 1.50000000000000000000e+003) (16, 1.50000000000000000000e+003) (17, 1.50000000000000000000e+003) (18, 1.56854856014251708984e+000) (19, -2.42235445976257324219e+000) (20, 6.15645456314086914062e+000) (21, -4.14869451522827148438e+000) (22, 7.43259620666503906250e+000) (23, 3.15406723022460937500e+001) (24, -6.94267730712890625000e+001) (25, -1.50000000000000000000e+003) (26, -4.16544860839843750000e+002) (27, 1.34651196289062500000e+003) (28, 1.50000000000000000000e+003) (29, 1.50000000000000000000e+003) (30, 1.50000000000000000000e+003) (31, 1.50000000000000000000e+003) (32, 1.50000000000000000000e+003) (33, 1.50000000000000000000e+003) (34, -5.14241170883178710938e+000) (35, 1.15300207138061523438e+001) (36, -2.08482608199119567871e-001) (37, 3.31735350191593170166e-002) (38, 3.44800734519958496094e+000) (39, 1.06404900550842285156e+000) (40, 1.82039749622344970703e+000) (41, 1.14106968045234680176e-001) (42, 1.96643817424774169922e+000) (43, 1.65039408206939697266e+000) (44, 1.50000000000000000000e+003) (45, 1.50000000000000000000e+003) (46, 1.50000000000000000000e+003) (47, 1.50000000000000000000e+003) (48, 1.50000000000000000000e+003) (49, 1.50000000000000000000e+003) (50, -1.48344259262084960938e+001) (51, -5.69566802978515625000e+001) (52, 1.15540542602539062500e+001) (53, 8.86906738281250000000e+001) (54, -2.95247253417968750000e+002) (55, -1.50000000000000000000e+003) (56, 1.50000000000000000000e+003) (57, 1.50000000000000000000e+003) (58, 1.50000000000000000000e+003) (59, 1.50000000000000000000e+003) (60, 1.50000000000000000000e+003) (61, 1.50000000000000000000e+003) (62, 1.50000000000000000000e+003) (63, 1.50000000000000000000e+003) (64, 1.50000000000000000000e+003) (65, 1.50000000000000000000e+003) (66, -4.88555014133453369141e-001) (67, 1.22985374927520751953e+000) (68, -7.39810109138488769531e-001) (69, -3.11908602714538574219e-001) (70, 1.09618577957153320312e+001) (71, 3.17285656929016113281e+000) (72, 4.37920033931732177734e-001) (73, 2.68099212646484375000e+000) (74, 1.50000000000000000000e+003) (75, 1.50000000000000000000e+003) (76, 3.82496237754821777344e+000) (0, -1.39750400558114051819e-002) (1, 2.19361066818237304688e+000) (2, 2.22611260414123535156e+000) (3, 1.02912321686744689941e-001) (4, -3.92421150207519531250e+000) (5, 1.43727076053619384766e+000) (6, 3.38560652732849121094e+000) (7, -6.75816106796264648438e+000) (8, -5.44229221343994140625e+000) (9, 6.11882019042968750000e+000) (10, 1.65983390808105468750e+001) (11, 3.49796447753906250000e+002) (12, 1.50000000000000000000e+003) (13, 1.50000000000000000000e+003) (14, 1.50000000000000000000e+003) (15, 1.50000000000000000000e+003) (16, 1.50000000000000000000e+003) (17, 1.50000000000000000000e+003) (18, 1.03897368907928466797e+000) (19, -1.28405294418334960938e+001) (20, -1.85045611858367919922e+000) (21, 8.03791999816894531250e+000) (22, -1.24746494293212890625e+001) (23, -3.45184612274169921875e+000) (24, 1.07241477966308593750e+001) (25, 2.34633216857910156250e+001) (26, 1.50000000000000000000e+003) (27, 1.50000000000000000000e+003) (28, 1.50000000000000000000e+003) (29, 1.50000000000000000000e+003) (30, 1.50000000000000000000e+003) (31, 1.50000000000000000000e+003) (32, 1.50000000000000000000e+003) (33, 1.50000000000000000000e+003) (34, 4.42800426483154296875e+000) (35, 3.63623785972595214844e+000) (36, 4.62305927276611328125e+000) (37, 4.86276102066040039062e+000) (38, -5.25938606262207031250e+000) (39, 3.80528473854064941406e+000) (40, -1.31950700283050537109e+000) (41, -5.61776208877563476562e+000) (42, -7.61159038543701171875e+000) (43, 7.94734725952148437500e+001) (44, 1.50000000000000000000e+003) (45, 1.50000000000000000000e+003) (46, 1.50000000000000000000e+003) (47, 1.50000000000000000000e+003) (48, 1.50000000000000000000e+003) (49, 1.50000000000000000000e+003) (50, -1.90994775295257568359e+000) (51, 1.17071380615234375000e+001) (52, -4.38544273376464843750e+000) (53, -2.68320941925048828125e+001) (54, 4.16073669433593750000e+002) (55, -1.50000000000000000000e+003) (56, 1.50000000000000000000e+003) (57, 1.50000000000000000000e+003) (58, 1.50000000000000000000e+003) (59, 1.50000000000000000000e+003) (60, 1.50000000000000000000e+003) (61, 1.50000000000000000000e+003) (62, 1.50000000000000000000e+003) (63, 1.50000000000000000000e+003) (64, 1.50000000000000000000e+003) (65, 1.50000000000000000000e+003) (66, -4.69876670837402343750e+000) (67, 5.09028375148773193359e-001) (68, 2.01112484931945800781e+000) (69, 4.46050357818603515625e+000) (70, 5.81692218780517578125e+000) (71, 4.98361825942993164062e+000) (72, 2.63112354278564453125e+000) (73, 6.89419984817504882812e-001) (74, 1.50000000000000000000e+003) (75, 1.50000000000000000000e+003) (76, -1.65289568901062011719e+000) (0, -7.13562536239624023438e+000) (1, 7.32609272003173828125e-001) (2, -1.57736614346504211426e-001) (3, -1.27152371406555175781e+000) (4, 3.28973263502120971680e-001) (5, -6.99846893548965454102e-002) (6, -1.11096727848052978516e+000) (7, -3.89191687107086181641e-001) (8, -1.21949315071105957031e+000) (9, -2.92298555374145507812e-001) (10, -1.76069724559783935547e+000) (11, -3.92808628082275390625e+000) (12, 1.50000000000000000000e+003) (13, 1.50000000000000000000e+003) (14, 1.50000000000000000000e+003) (15, 1.50000000000000000000e+003) (16, 1.50000000000000000000e+003) (17, 1.50000000000000000000e+003) (18, 1.88024222850799560547e+000) (19, 9.36395347118377685547e-001) (20, 5.90877532958984375000e-001) (21, 9.30433154106140136719e-001) (22, 3.34812164306640625000e-001) (23, 1.85987722873687744141e+000) (24, 3.53966140747070312500e+000) (25, 1.43161071777343750000e+003) (26, 1.49905407714843750000e+003) (27, -1.50000000000000000000e+003) (28, 1.50000000000000000000e+003) (29, 1.50000000000000000000e+003) (30, 1.50000000000000000000e+003) (31, 1.50000000000000000000e+003) (32, 1.50000000000000000000e+003) (33, 1.50000000000000000000e+003) (34, 2.35727772116661071777e-001) (35, 6.53707683086395263672e-001) (36, 4.23062741756439208984e-002) (37, 1.05516242980957031250e+000) (38, 3.13760542869567871094e+000) (39, -1.86582410335540771484e+000) (40, -2.84418702125549316406e+000) (41, -4.79160070419311523438e+000) (42, 6.02004863321781158447e-002) (43, 1.09845283508300781250e+002) (44, 1.50000000000000000000e+003) (45, 1.50000000000000000000e+003) (46, 1.50000000000000000000e+003) (47, 1.50000000000000000000e+003) (48, 1.50000000000000000000e+003) (49, 1.50000000000000000000e+003) (50, 1.01951110363006591797e+000) (51, -5.03753066062927246094e-001) (52, 1.56673145294189453125e+000) (53, 3.23276519775390625000e+001) (54, -2.39209243774414062500e+002) (55, 1.50000000000000000000e+003) (56, 1.50000000000000000000e+003) (57, 1.50000000000000000000e+003) (58, 1.50000000000000000000e+003) (59, 1.50000000000000000000e+003) (60, 1.50000000000000000000e+003) (61, 1.50000000000000000000e+003) (62, 1.50000000000000000000e+003) (63, 1.50000000000000000000e+003) (64, 1.50000000000000000000e+003) (65, 1.50000000000000000000e+003) (66, 1.15777482986450195312e+001) (67, 2.55245804786682128906e-001) (68, 8.53774622082710266113e-002) (69, 2.47109577059745788574e-001) (70, 2.34557464718818664551e-001) (71, 3.60412806272506713867e-001) (72, 1.54929772019386291504e-001) (73, 1.35148093104362487793e-001) (74, 1.50000000000000000000e+003) (75, 1.50000000000000000000e+003) (76, -4.89464908838272094727e-001) (0, 7.36631155014038085938e-001) (1, 1.37562200427055358887e-001) (2, -1.68533056974411010742e-001) (3, 1.06939303874969482422e+000) (4, 1.98839259147644042969e+000) (5, 1.15920913219451904297e+000) (6, 2.57704883813858032227e-001) (7, 3.82944464683532714844e-001) (8, 1.98921942710876464844e+000) (9, 9.99069809913635253906e-001) (10, -2.59808063507080078125e-001) (11, 1.44751520156860351562e+001) (12, 1.50000000000000000000e+003) (13, 1.50000000000000000000e+003) (14, 1.50000000000000000000e+003) (15, 1.50000000000000000000e+003) (16, 1.50000000000000000000e+003) (17, 1.50000000000000000000e+003) (18, -1.74307298660278320312e+000) (19, -1.36027503013610839844e+000) (20, -2.84627103805541992188e+000) (21, -2.74704837799072265625e+000) (22, 6.17390155792236328125e-001) (23, -2.65478432178497314453e-001) (24, -4.70607852935791015625e+000) (25, -7.44186401367187500000e-001) (26, -8.07852050781250000000e+002) (27, -2.09561462402343750000e+002) (28, 1.50000000000000000000e+003) (29, 1.50000000000000000000e+003) (30, 1.50000000000000000000e+003) (31, 1.50000000000000000000e+003) (32, 1.50000000000000000000e+003) (33, 1.50000000000000000000e+003) (34, 1.85282218456268310547e+000) (35, 9.17977094650268554688e-001) (36, -7.57233619689941406250e-001) (37, -4.72822874784469604492e-001) (38, -6.64747476577758789062e-001) (39, -1.71975505352020263672e+000) (40, 2.05269798636436462402e-001) (41, 1.55968323349952697754e-001) (42, 1.06763064861297607422e+000) (43, -5.83035707473754882812e+000) (44, 1.50000000000000000000e+003) (45, 1.50000000000000000000e+003) (46, 1.50000000000000000000e+003) (47, 1.50000000000000000000e+003) (48, 1.50000000000000000000e+003) (49, 1.50000000000000000000e+003) (50, 4.93664455413818359375e+000) (51, 1.21553742885589599609e+000) (52, 1.65850684046745300293e-001) (53, -6.48439121246337890625e+000) (54, -1.49274645996093750000e+003) (55, -1.50000000000000000000e+003) (56, 1.50000000000000000000e+003) (57, 1.50000000000000000000e+003) (58, 1.50000000000000000000e+003) (59, 1.50000000000000000000e+003) (60, 1.50000000000000000000e+003) (61, 1.50000000000000000000e+003) (62, 1.50000000000000000000e+003) (63, 1.50000000000000000000e+003) (64, 1.50000000000000000000e+003) (65, 1.50000000000000000000e+003) (66, -2.86241441965103149414e-001) (67, 7.58935958147048950195e-002) (68, 1.76751807332038879395e-001) (69, -4.61937002837657928467e-002) (70, 2.71520447731018066406e+000) (71, 3.88587743043899536133e-001) (72, 3.39379572868347167969e+000) (73, 2.50033020973205566406e+000) (74, 1.50000000000000000000e+003) (75, 1.50000000000000000000e+003) (76, 3.79220962524414062500e-001) (0, 4.61160135269165039062e+000) (1, 2.62507200241088867188e-001) (2, 1.15062522888183593750e+000) (3, 6.97313666343688964844e-001) (4, 1.73689711093902587891e+000) (5, 6.25620961189270019531e-001) (6, 3.21389770507812500000e+000) (7, -2.58617013692855834961e-001) (8, -8.31758320331573486328e-001) (9, -1.75355720520019531250e+000) (10, 2.61525106430053710938e+000) (11, 3.28811454772949218750e+001) (12, 1.50000000000000000000e+003) (13, 1.50000000000000000000e+003) (14, 1.50000000000000000000e+003) (15, 1.50000000000000000000e+003) (16, 1.50000000000000000000e+003) (17, 1.50000000000000000000e+003) (18, 1.61028659343719482422e+000) (19, -2.02362823486328125000e+000) (20, -6.26301717758178710938e+000) (21, 2.26964689791202545166e-002) (22, -3.24635219573974609375e+000) (23, -2.93890166282653808594e+000) (24, 2.96102547645568847656e+000) (25, -1.46811141967773437500e+002) (26, 1.49751916503906250000e+003) (27, -7.33729476928710937500e+001) (28, 1.50000000000000000000e+003) (29, 1.50000000000000000000e+003) (30, 1.50000000000000000000e+003) (31, 1.50000000000000000000e+003) (32, 1.50000000000000000000e+003) (33, 1.50000000000000000000e+003) (34, 3.34214115142822265625e+000) (35, 9.74275823682546615601e-003) (36, -2.66092836856842041016e-001) (37, -2.07692599296569824219e+000) (38, -4.78834152221679687500e+000) (39, -1.09017026424407958984e+000) (40, -4.01484698057174682617e-001) (41, 1.96036553382873535156e+000) (42, 8.41066300868988037109e-001) (43, -1.46537017822265625000e+001) (44, 1.50000000000000000000e+003) (45, 1.50000000000000000000e+003) (46, 1.50000000000000000000e+003) (47, 1.50000000000000000000e+003) (48, 1.50000000000000000000e+003) (49, 1.50000000000000000000e+003) (50, 1.55694580078125000000e+000) (51, 7.84768700599670410156e-001) (52, 3.27943611145019531250e+000) (53, -1.01578969955444335938e+001) (54, 1.50000000000000000000e+003) (55, -1.50000000000000000000e+003) (56, 1.50000000000000000000e+003) (57, 1.50000000000000000000e+003) (58, 1.50000000000000000000e+003) (59, 1.50000000000000000000e+003) (60, 1.50000000000000000000e+003) (61, 1.50000000000000000000e+003) (62, 1.50000000000000000000e+003) (63, 1.50000000000000000000e+003) (64, 1.50000000000000000000e+003) (65, 1.50000000000000000000e+003) (66, 1.57472693920135498047e+000) (67, 6.09803140163421630859e-001) (68, 1.29432713985443115234e+000) (69, 2.00216382741928100586e-001) (70, 2.91546490043401718140e-002) (71, 4.48311656713485717773e-001) (72, -1.66704252362251281738e-001) (73, 4.44094896316528320312e-001) (74, 1.50000000000000000000e+003) (75, 1.50000000000000000000e+003) (76, 3.10428868979215621948e-002) (0, 2.47041296958923339844e+000) (1, -7.12496638298034667969e-001) (2, 9.61880862712860107422e-001) (3, 5.51804018020629882812e+000) (4, 6.04298162460327148438e+000) (5, 4.60561370849609375000e+000) (6, 1.03919482231140136719e+000) (7, 2.56658363342285156250e+000) (8, 1.02450170516967773438e+001) (9, 1.49497656250000000000e+003) (10, 1.24798828125000000000e+003) (11, 1.50000000000000000000e+003) (12, 1.50000000000000000000e+003) (13, 1.50000000000000000000e+003) (14, 1.50000000000000000000e+003) (15, 1.50000000000000000000e+003) (16, 1.50000000000000000000e+003) (17, 1.50000000000000000000e+003) (18, 6.13502621650695800781e-001) (19, 7.14188694953918457031e-001) (20, 1.13723027706146240234e+000) (21, -1.05359447002410888672e+000) (22, 2.86421442031860351562e+000) (23, 7.80053317546844482422e-001) (24, -1.13893003463745117188e+001) (25, 6.83917570114135742188e+000) (26, -2.72873377799987792969e+000) (27, 1.06997167968750000000e+003) (28, 1.50000000000000000000e+003) (29, 1.50000000000000000000e+003) (30, 1.50000000000000000000e+003) (31, 1.50000000000000000000e+003) (32, 1.50000000000000000000e+003) (33, 1.50000000000000000000e+003) (34, 1.89445066452026367188e+000) (35, -5.09481072425842285156e-001) (36, -8.10673356056213378906e-001) (37, -2.29037857055664062500e+000) (38, 1.42816841602325439453e-001) (39, 3.33156418800354003906e+000) (40, 4.36371040344238281250e+000) (41, 4.43892621994018554688e+000) (42, -2.39332652091979980469e+000) (43, -1.94599571228027343750e+001) (44, 1.50000000000000000000e+003) (45, 1.50000000000000000000e+003) (46, 1.50000000000000000000e+003) (47, 1.50000000000000000000e+003) (48, 1.50000000000000000000e+003) (49, 1.50000000000000000000e+003) (50, -7.72621154785156250000e-001) (51, -2.39236640930175781250e+000) (52, -1.43438160419464111328e+000) (53, 1.26169300079345703125e+001) (54, -1.31287994384765625000e+002) (55, -1.50000000000000000000e+003) (56, 1.50000000000000000000e+003) (57, 1.50000000000000000000e+003) (58, 1.50000000000000000000e+003) (59, 1.50000000000000000000e+003) (60, 1.50000000000000000000e+003) (61, 1.50000000000000000000e+003) (62, 1.50000000000000000000e+003) (63, 1.50000000000000000000e+003) (64, 1.50000000000000000000e+003) (65, 1.50000000000000000000e+003) (66, -1.42289721965789794922e+000) (67, -5.61109900474548339844e-001) (68, -8.90677943825721740723e-002) (69, -1.61396312713623046875e+000) (70, -9.74723577499389648438e-001) (71, -1.58362817764282226562e+000) (72, -1.17171251773834228516e+000) (73, -8.43592762947082519531e-001) (74, 1.50000000000000000000e+003) (75, 1.50000000000000000000e+003) (76, -4.50893282890319824219e-001) (0, -1.82133567333221435547e+000) (1, -6.10858738422393798828e-001) (2, 1.59863650798797607422e+000) (3, 5.31412458419799804688e+000) (4, 1.95191514492034912109e+000) (5, 8.39330494403839111328e-001) (6, -3.85504302978515625000e+001) (7, -1.49969433593750000000e+003) (8, 3.70779442787170410156e+000) (9, 3.59546995162963867188e+000) (10, 2.47548890113830566406e+000) (11, 9.54572601318359375000e+001) (12, 1.50000000000000000000e+003) (13, 1.50000000000000000000e+003) (14, 1.50000000000000000000e+003) (15, 1.50000000000000000000e+003) (16, 1.50000000000000000000e+003) (17, 1.50000000000000000000e+003) (18, -3.21912455558776855469e+000) (19, 6.62211275100708007812e+000) (20, 2.50713348388671875000e+001) (21, 6.14157629013061523438e+000) (22, -6.79193079471588134766e-001) (23, 4.01784229278564453125e+000) (24, 2.36053299903869628906e+000) (25, -1.11803197860717773438e+001) (26, 1.24249847412109375000e+002) (27, 1.50000000000000000000e+003) (28, 1.50000000000000000000e+003) (29, 1.50000000000000000000e+003) (30, 1.50000000000000000000e+003) (31, 1.50000000000000000000e+003) (32, 1.50000000000000000000e+003) (33, 1.50000000000000000000e+003) (34, -2.98186612129211425781e+000) (35, 1.30371475219726562500e+000) (36, 1.86927303671836853027e-001) (37, -1.10423727035522460938e+001) (38, 1.45626764297485351562e+001) (39, 4.63307094573974609375e+000) (40, 1.37855458259582519531e+000) (41, 3.12317919731140136719e+000) (42, 6.75206565856933593750e+000) (43, 8.63660621643066406250e+000) (44, 1.50000000000000000000e+003) (45, 1.50000000000000000000e+003) (46, 1.50000000000000000000e+003) (47, 1.50000000000000000000e+003) (48, 1.50000000000000000000e+003) (49, 1.50000000000000000000e+003) (50, 5.09371423721313476562e+000) (51, -6.09015583992004394531e-001) (52, 7.44938373565673828125e+000) (53, -1.60268497467041015625e+001) (54, -3.26457672119140625000e+002) (55, -1.50000000000000000000e+003) (56, 1.50000000000000000000e+003) (57, 1.50000000000000000000e+003) (58, 1.50000000000000000000e+003) (59, 1.50000000000000000000e+003) (60, 1.50000000000000000000e+003) (61, 1.50000000000000000000e+003) (62, 1.50000000000000000000e+003) (63, 1.50000000000000000000e+003) (64, 1.50000000000000000000e+003) (65, 1.50000000000000000000e+003) (66, -3.01132249832153320312e+000) (67, -4.35714101791381835938e+000) (68, -7.16371536254882812500e-001) (69, 4.39021408557891845703e-001) (70, 5.38405418395996093750e-001) (71, 6.09439611434936523438e-001) (72, 2.15011030435562133789e-001) (73, -1.18406391143798828125e+000) (74, 1.50000000000000000000e+003) (75, 1.50000000000000000000e+003) (76, -4.62102591991424560547e-001) (0, -3.28269481658935546875e+000) (1, 2.21905708312988281250e+001) (2, -1.19602084159851074219e+000) (3, -9.90515649318695068359e-001) (4, 6.46251678466796875000e+000) (5, -7.69226646423339843750e+000) (6, -9.99695584177970886230e-002) (7, 2.30405273437500000000e+001) (8, 1.75728535652160644531e+000) (9, 2.19295263290405273438e+000) (10, 3.34259271621704101562e+000) (11, 1.44956481933593750000e+003) (12, 1.50000000000000000000e+003) (13, 1.50000000000000000000e+003) (14, 1.50000000000000000000e+003) (15, 1.50000000000000000000e+003) (16, 1.50000000000000000000e+003) (17, 1.50000000000000000000e+003) (18, 7.94933795928955078125e-001) (19, 2.69054508209228515625e+000) (20, 2.33404564857482910156e+000) (21, -3.51961284875869750977e-001) (22, 1.50000000000000000000e+003) (23, 1.35641564941406250000e+003) (24, 9.17626571655273437500e+001) (25, 1.47562561035156250000e+003) (26, 6.65024963378906250000e+002) (27, 1.58299591064453125000e+002) (28, 1.50000000000000000000e+003) (29, 1.50000000000000000000e+003) (30, 1.50000000000000000000e+003) (31, 1.50000000000000000000e+003) (32, 1.50000000000000000000e+003) (33, 1.50000000000000000000e+003) (34, -1.97461271286010742188e+000) (35, 1.65853774547576904297e+000) (36, 1.52964031696319580078e+000) (37, -2.16273832321166992188e+000) (38, -9.51883220672607421875e+000) (39, -2.04275679588317871094e+000) (40, -6.10604524612426757812e+000) (41, -9.34117412567138671875e+000) (42, 3.55220961570739746094e+000) (43, 1.49793884277343750000e+002) (44, 1.50000000000000000000e+003) (45, 1.50000000000000000000e+003) (46, 1.50000000000000000000e+003) (47, 1.50000000000000000000e+003) (48, 1.50000000000000000000e+003) (49, 1.50000000000000000000e+003) (50, 1.13176193237304687500e+001) (51, -9.39753818511962890625e+000) (52, 2.56726264953613281250e+001) (53, -3.77082633972167968750e+001) (54, 1.50000000000000000000e+003) (55, 1.50000000000000000000e+003) (56, 1.50000000000000000000e+003) (57, 1.50000000000000000000e+003) (58, 1.50000000000000000000e+003) (59, 1.50000000000000000000e+003) (60, 1.50000000000000000000e+003) (61, 1.50000000000000000000e+003) (62, 1.50000000000000000000e+003) (63, 1.50000000000000000000e+003) (64, 1.50000000000000000000e+003) (65, 1.50000000000000000000e+003) (66, 3.97493672370910644531e+000) (67, 5.06146430969238281250e-001) (68, -8.00935077667236328125e+000) (69, 2.72226721048355102539e-001) (70, 2.73686599731445312500e+000) (71, -8.26880645751953125000e+000) (72, -1.97589492797851562500e+000) (73, 1.15164160728454589844e+000) (74, 1.50000000000000000000e+003) (75, 1.50000000000000000000e+003) (76, 1.26865720748901367188e+000) (0, -3.19035744667053222656e+000) (1, 1.17797777056694030762e-001) (2, 1.08044278621673583984e+000) (3, 1.64984250068664550781e+000) (4, 2.50498962402343750000e+000) (5, 4.03035306930541992188e+000) (6, 2.35564661026000976562e+000) (7, 2.23376822471618652344e+000) (8, 4.63279962539672851562e+000) (9, 1.25944781303405761719e+000) (10, 2.81030488014221191406e+000) (11, 7.59361343383789062500e+001) (12, 1.50000000000000000000e+003) (13, 1.50000000000000000000e+003) (14, 1.50000000000000000000e+003) (15, 1.50000000000000000000e+003) (16, 1.50000000000000000000e+003) (17, 1.50000000000000000000e+003) (18, 1.41577076911926269531e+000) (19, -6.44862830638885498047e-001) (20, -3.13787269592285156250e+000) (21, -6.61746621131896972656e-001) (22, -1.94454991817474365234e+000) (23, 2.83462214469909667969e+000) (24, 4.16515846252441406250e+001) (25, -7.62790527343750000000e+001) (26, -1.39024328613281250000e+003) (27, 9.57045227050781250000e+002) (28, 1.50000000000000000000e+003) (29, 1.50000000000000000000e+003) (30, 1.50000000000000000000e+003) (31, 1.50000000000000000000e+003) (32, 1.50000000000000000000e+003) (33, 1.50000000000000000000e+003) (34, -3.58517050743103027344e+000) (35, 8.19579541683197021484e-001) (36, 2.18720173835754394531e+000) (37, -1.18333327770233154297e+000) (38, -3.57661938667297363281e+000) (39, 2.99343407154083251953e-001) (40, 1.86956572532653808594e+000) (41, -5.68348765373229980469e-001) (42, -3.27290201187133789062e+000) (43, 2.45368633270263671875e+001) (44, 1.50000000000000000000e+003) (45, 1.50000000000000000000e+003) (46, 1.50000000000000000000e+003) (47, 1.50000000000000000000e+003) (48, 1.50000000000000000000e+003) (49, 1.50000000000000000000e+003) (50, 1.76033735275268554688e+000) (51, -4.05273151397705078125e+000) (52, 8.50517749786376953125e+000) (53, 3.80727615356445312500e+001) (54, -8.47133728027343750000e+002) (55, -1.50000000000000000000e+003) (56, 1.50000000000000000000e+003) (57, 1.50000000000000000000e+003) (58, 1.50000000000000000000e+003) (59, 1.50000000000000000000e+003) (60, 1.50000000000000000000e+003) (61, 1.50000000000000000000e+003) (62, 1.50000000000000000000e+003) (63, 1.50000000000000000000e+003) (64, 1.50000000000000000000e+003) (65, 1.50000000000000000000e+003) (66, 1.97574824094772338867e-001) (67, 1.18648004531860351562e+000) (68, 1.81914314627647399902e-001) (69, 3.24102783203125000000e+000) (70, 3.45313119888305664062e+000) (71, 4.26247626543045043945e-001) (72, 1.11149883270263671875e+000) (73, 3.62260198593139648438e+000) (74, 1.50000000000000000000e+003) (75, 1.50000000000000000000e+003) (76, 3.33097726106643676758e-001) (0, -1.00613079965114593506e-001) (1, 2.91552692651748657227e-001) (2, 3.04140716791152954102e-001) (3, -1.88750818371772766113e-001) (4, 1.74334275722503662109e+000) (5, 1.03086911141872406006e-001) (6, 1.67107693850994110107e-002) (7, 2.72168040275573730469e+000) (8, -5.70805406570434570312e+000) (9, -1.33711023330688476562e+001) (10, -4.50423774719238281250e+001) (11, 2.17792709350585937500e+002) (12, 1.50000000000000000000e+003) (13, 1.50000000000000000000e+003) (14, 1.50000000000000000000e+003) (15, 1.50000000000000000000e+003) (16, 1.50000000000000000000e+003) (17, 1.50000000000000000000e+003) (18, 1.98456346988677978516e+000) (19, 8.13398718833923339844e-001) (20, -3.51270079612731933594e+000) (21, 6.05441153049468994141e-001) (22, 2.23328614234924316406e+000) (23, 2.98196816444396972656e+000) (24, 4.99617719650268554688e+000) (25, -3.13814544677734375000e+001) (26, -1.05746972656250000000e+003) (27, 1.50000000000000000000e+003) (28, 1.50000000000000000000e+003) (29, 1.50000000000000000000e+003) (30, 1.50000000000000000000e+003) (31, 1.50000000000000000000e+003) (32, 1.50000000000000000000e+003) (33, 1.50000000000000000000e+003) (34, 1.16351604461669921875e+000) (35, -2.55079007148742675781e+000) (36, -2.19469413161277770996e-001) (37, -2.38930177688598632812e+000) (38, -4.10999345779418945312e+000) (39, 1.29375481605529785156e+000) (40, 2.23406255245208740234e-001) (41, 7.11824893951416015625e-001) (42, -1.91938698291778564453e+000) (43, 1.20200901031494140625e+001) (44, 1.50000000000000000000e+003) (45, 1.50000000000000000000e+003) (46, 1.50000000000000000000e+003) (47, 1.50000000000000000000e+003) (48, 1.50000000000000000000e+003) (49, 1.50000000000000000000e+003) (50, -1.38409185409545898438e+000) (51, -2.43573117256164550781e+000) (52, 1.16656982898712158203e+000) (53, 2.33680324554443359375e+001) (54, -1.50000000000000000000e+003) (55, -1.50000000000000000000e+003) (56, 1.50000000000000000000e+003) (57, 1.50000000000000000000e+003) (58, 1.50000000000000000000e+003) (59, 1.50000000000000000000e+003) (60, 1.50000000000000000000e+003) (61, 1.50000000000000000000e+003) (62, 1.50000000000000000000e+003) (63, 1.50000000000000000000e+003) (64, 1.50000000000000000000e+003) (65, 1.50000000000000000000e+003) (66, 1.01323604583740234375e+000) (67, 3.65499556064605712891e-001) (68, 2.72868692874908447266e-001) (69, 1.12779998779296875000e+000) (70, 4.40359301865100860596e-002) (71, 2.53348320722579956055e-001) (72, 1.36383926868438720703e+000) (73, -2.43273936212062835693e-002) (74, 1.50000000000000000000e+003) (75, 1.50000000000000000000e+003) (76, 3.02736073732376098633e-001) (0, -7.97455608844757080078e-001) (1, 4.84741508960723876953e-001) (2, 1.95919263362884521484e+000) (3, 7.82000875473022460938e+000) (4, 3.82428050041198730469e-001) (5, -3.45615482330322265625e+000) (6, -1.94260522723197937012e-001) (7, 1.43830752372741699219e+000) (8, 1.18503913879394531250e+001) (9, 2.51580448150634765625e+001) (10, 1.24418708801269531250e+002) (11, 1.50000000000000000000e+003) (12, 1.50000000000000000000e+003) (13, 1.50000000000000000000e+003) (14, 1.50000000000000000000e+003) (15, 1.50000000000000000000e+003) (16, 1.50000000000000000000e+003) (17, 1.50000000000000000000e+003) (18, 7.86985456943511962891e-001) (19, -1.46805083751678466797e+000) (20, 5.09383201599121093750e+000) (21, -1.45839917659759521484e+000) (22, -8.81134748458862304688e-001) (23, -3.43357968330383300781e+000) (24, 2.64593648910522460938e+000) (25, 3.68439147949218750000e+002) (26, 1.49780322265625000000e+003) (27, 1.06987292480468750000e+003) (28, 1.50000000000000000000e+003) (29, 1.50000000000000000000e+003) (30, 1.50000000000000000000e+003) (31, 1.50000000000000000000e+003) (32, 1.50000000000000000000e+003) (33, 1.50000000000000000000e+003) (34, -2.08105444908142089844e-001) (35, -1.64391756057739257812e-001) (36, 5.09497709572315216064e-002) (37, -1.51967608928680419922e+000) (38, 3.81308937072753906250e+000) (39, -1.25998663902282714844e+000) (40, 4.35228556394577026367e-001) (41, 1.14308762550354003906e+000) (42, -9.69476699829101562500e-001) (43, 1.06490097045898437500e+001) (44, 1.50000000000000000000e+003) (45, 1.50000000000000000000e+003) (46, 1.50000000000000000000e+003) (47, 1.50000000000000000000e+003) (48, 1.50000000000000000000e+003) (49, 1.50000000000000000000e+003) (50, 1.26989459991455078125e+000) (51, -1.89947903156280517578e+000) (52, 4.55277347564697265625e+000) (53, 4.08264678955078125000e+002) (54, -1.40569348144531250000e+003) (55, -1.50000000000000000000e+003) (56, 1.50000000000000000000e+003) (57, 1.50000000000000000000e+003) (58, 1.50000000000000000000e+003) (59, 1.50000000000000000000e+003) (60, 1.50000000000000000000e+003) (61, 1.50000000000000000000e+003) (62, 1.50000000000000000000e+003) (63, 1.50000000000000000000e+003) (64, 1.50000000000000000000e+003) (65, 1.50000000000000000000e+003) (66, 9.01768267154693603516e-001) (67, 1.45247459411621093750e+000) (68, 7.57353782653808593750e-001) (69, 3.70161384344100952148e-001) (70, -3.60106587409973144531e-001) (71, -3.07715833187103271484e-001) (72, -1.72397822141647338867e-001) (73, -9.14560377597808837891e-001) (74, 1.50000000000000000000e+003) (75, 1.50000000000000000000e+003) (76, 4.99004155397415161133e-001) (0, 1.24448108673095703125e+000) (1, 8.83178785443305969238e-002) (2, 1.95852088928222656250e+000) (3, -7.81136894226074218750e+000) (4, -5.03031806945800781250e+001) (5, -2.37903618812561035156e+000) (6, -3.79255890846252441406e+000) (7, 2.56632342934608459473e-002) (8, -2.54218530654907226562e+000) (9, -1.30569827556610107422e+000) (10, -1.49395666503906250000e+003) (11, 1.42862927246093750000e+003) (12, 1.50000000000000000000e+003) (13, 1.50000000000000000000e+003) (14, 1.50000000000000000000e+003) (15, 1.50000000000000000000e+003) (16, 1.50000000000000000000e+003) (17, 1.50000000000000000000e+003) (18, -2.74455809593200683594e+000) (19, -7.46630251407623291016e-001) (20, -2.16656160354614257812e+000) (21, -3.09222388267517089844e+000) (22, 4.41335868835449218750e+000) (23, -1.99096221923828125000e+001) (24, -1.50000000000000000000e+003) (25, -1.46538696289062500000e+003) (26, -9.06588821411132812500e+001) (27, -7.30260559082031250000e+002) (28, 1.50000000000000000000e+003) (29, 1.50000000000000000000e+003) (30, 1.50000000000000000000e+003) (31, 1.50000000000000000000e+003) (32, 1.50000000000000000000e+003) (33, 1.50000000000000000000e+003) (34, -3.69791483879089355469e+000) (35, -2.76332426071166992188e+000) (36, -6.29047513008117675781e-001) (37, 1.17782145738601684570e-001) (38, -1.31943559646606445312e+000) (39, -1.22565543651580810547e+000) (40, 8.79824519157409667969e-001) (41, 2.09283661842346191406e+000) (42, -3.35748720169067382812e+000) (43, -1.49945959472656250000e+003) (44, 1.50000000000000000000e+003) (45, 1.50000000000000000000e+003) (46, 1.50000000000000000000e+003) (47, 1.50000000000000000000e+003) (48, 1.50000000000000000000e+003) (49, 1.50000000000000000000e+003) (50, -1.44631969928741455078e+000) (51, -9.64689195156097412109e-001) (52, -1.42627258300781250000e+003) (53, -3.39297851562500000000e+002) (54, -1.39075024414062500000e+003) (55, -1.50000000000000000000e+003) (56, 1.50000000000000000000e+003) (57, 1.50000000000000000000e+003) (58, 1.50000000000000000000e+003) (59, 1.50000000000000000000e+003) (60, 1.50000000000000000000e+003) (61, 1.50000000000000000000e+003) (62, 1.50000000000000000000e+003) (63, 1.50000000000000000000e+003) (64, 1.50000000000000000000e+003) (65, 1.50000000000000000000e+003) (66, -9.66070711612701416016e-001) (67, -9.40956175327301025391e-002) (68, -6.56256303191184997559e-002) (69, 6.73795819282531738281e-001) (70, -2.00954660773277282715e-001) (71, -1.39584466814994812012e-001) (72, 8.97624865174293518066e-002) (73, 9.61334779858589172363e-002) (74, 1.50000000000000000000e+003) (75, 1.50000000000000000000e+003) (76, -6.48343265056610107422e-001) (0, 4.58222770690917968750e+000) (1, 4.24046143889427185059e-002) (2, 2.66913485527038574219e+000) (3, 3.36354675292968750000e+001) (4, 3.37127799987792968750e+001) (5, 3.48208284378051757812e+000) (6, 1.76702545166015625000e+002) (7, 1.98156005859375000000e+002) (8, 3.82375097274780273438e+000) (9, -2.35601730346679687500e+001) (10, 9.37121868133544921875e+000) (11, -2.47753658294677734375e+001) (12, 1.50000000000000000000e+003) (13, 1.50000000000000000000e+003) (14, 1.50000000000000000000e+003) (15, 1.50000000000000000000e+003) (16, 1.50000000000000000000e+003) (17, 1.50000000000000000000e+003) (18, 7.52164781093597412109e-001) (19, -1.23742103576660156250e+000) (20, 2.06569027900695800781e+000) (21, -5.32501268386840820312e+000) (22, 3.60278463363647460938e+000) (23, -5.01578664779663085938e+000) (24, 6.59982347488403320312e+000) (25, 1.50000000000000000000e+003) (26, 6.60451049804687500000e+002) (27, -8.09233764648437500000e+002) (28, 1.50000000000000000000e+003) (29, 1.50000000000000000000e+003) (30, 1.50000000000000000000e+003) (31, 1.50000000000000000000e+003) (32, 1.50000000000000000000e+003) (33, 1.50000000000000000000e+003) (34, -2.30944538116455078125e+000) (35, -9.94397163391113281250e+000) (36, -4.94724369049072265625e+000) (37, -7.48030710220336914062e+000) (38, -1.29373884201049804688e+001) (39, 2.38773107528686523438e+000) (40, -8.92004585266113281250e+000) (41, -2.14649629592895507812e+000) (42, -1.16728286743164062500e+001) (43, -4.31976013183593750000e+001) (44, 1.50000000000000000000e+003) (45, 1.50000000000000000000e+003) (46, 1.50000000000000000000e+003) (47, 1.50000000000000000000e+003) (48, 1.50000000000000000000e+003) (49, 1.50000000000000000000e+003) (50, 1.23213825225830078125e+001) (51, 1.50000000000000000000e+003) (52, 8.67772460937500000000e+002) (53, -5.79997406005859375000e+001) (54, 1.50000000000000000000e+003) (55, -1.50000000000000000000e+003) (56, 1.50000000000000000000e+003) (57, 1.50000000000000000000e+003) (58, 1.50000000000000000000e+003) (59, 1.50000000000000000000e+003) (60, 1.50000000000000000000e+003) (61, 1.50000000000000000000e+003) (62, 1.50000000000000000000e+003) (63, 1.50000000000000000000e+003) (64, 1.50000000000000000000e+003) (65, 1.50000000000000000000e+003) (66, 1.61083831787109375000e+001) (67, 2.65830802917480468750e+000) (68, 3.91278356313705444336e-001) (69, -5.24375438690185546875e-001) (70, 8.44666063785552978516e-001) (71, 5.06121106445789337158e-003) (72, 2.97833740711212158203e-001) (73, -1.24820125102996826172e+000) (74, 1.50000000000000000000e+003) (75, 1.50000000000000000000e+003) (76, 1.21556580066680908203e+000) (0, -5.18061637878417968750e+000) (1, 5.96689999103546142578e-001) (2, -2.77711391448974609375e+000) (3, 3.55727560818195343018e-002) (4, -2.96027588844299316406e+000) (5, -1.87769687175750732422e+000) (6, -6.64742994308471679688e+000) (7, -1.29671459197998046875e+001) (8, -1.56085145473480224609e+000) (9, -2.35258102416992187500e+000) (10, -1.38779478073120117188e+001) (11, -1.31191551685333251953e-001) (12, 1.50000000000000000000e+003) (13, 1.50000000000000000000e+003) (14, 1.50000000000000000000e+003) (15, 1.50000000000000000000e+003) (16, 1.50000000000000000000e+003) (17, 1.50000000000000000000e+003) (18, -1.50876152515411376953e+000) (19, 2.17311531305313110352e-001) (20, -6.52071571350097656250e+000) (21, -1.95850486755371093750e+001) (22, 5.87445855140686035156e-001) (23, -1.03661751747131347656e+000) (24, 2.94307851791381835938e+000) (25, -6.54513180255889892578e-001) (26, -4.03645248413085937500e+001) (27, -1.50000000000000000000e+003) (28, 1.50000000000000000000e+003) (29, 1.50000000000000000000e+003) (30, 1.50000000000000000000e+003) (31, 1.50000000000000000000e+003) (32, 1.50000000000000000000e+003) (33, 1.50000000000000000000e+003) (34, 5.49493074417114257812e+000) (35, 6.31588935852050781250e+000) (36, -6.99343729019165039062e+000) (37, 4.65942478179931640625e+000) (38, -6.69922828674316406250e-002) (39, 4.74315595626831054688e+000) (40, 3.48780393600463867188e+000) (41, 1.74392116069793701172e+000) (42, 1.21411314010620117188e+001) (43, 5.94910383224487304688e+000) (44, 1.50000000000000000000e+003) (45, 1.50000000000000000000e+003) (46, 1.50000000000000000000e+003) (47, 1.50000000000000000000e+003) (48, 1.50000000000000000000e+003) (49, 1.50000000000000000000e+003) (50, -1.04930305480957031250e+000) (51, 9.50110375881195068359e-001) (52, 2.68086338043212890625e+000) (53, -2.17850627899169921875e+001) (54, 5.14801696777343750000e+002) (55, -1.50000000000000000000e+003) (56, 1.50000000000000000000e+003) (57, 1.50000000000000000000e+003) (58, 1.50000000000000000000e+003) (59, 1.50000000000000000000e+003) (60, 1.50000000000000000000e+003) (61, 1.50000000000000000000e+003) (62, 1.50000000000000000000e+003) (63, 1.50000000000000000000e+003) (64, 1.50000000000000000000e+003) (65, 1.50000000000000000000e+003) (66, -6.56061840057373046875e+000) (67, 1.86724591255187988281e+000) (68, 8.93744289875030517578e-001) (69, 4.40987572073936462402e-003) (70, -8.23396265506744384766e-001) (71, -9.59146916866302490234e-002) (72, 6.11792385578155517578e-001) (73, -3.11690475791692733765e-002) (74, 1.50000000000000000000e+003) (75, 1.50000000000000000000e+003) (76, -6.84548020362854003906e-002) (0, 8.64946365356445312500e+000) (1, 5.87081909179687500000e-001) (2, -2.36491203308105468750e+000) (3, -4.17604064941406250000e+000) (4, -1.26217126846313476562e+000) (5, -3.52657580375671386719e+000) (6, -3.10438203811645507812e+000) (7, 8.20719778537750244141e-001) (8, -6.22907876968383789062e+000) (9, -8.76305770874023437500e+000) (10, 5.05690753459930419922e-001) (11, 1.29532012939453125000e+001) (12, 1.50000000000000000000e+003) (13, 1.50000000000000000000e+003) (14, 1.50000000000000000000e+003) (15, 1.50000000000000000000e+003) (16, 1.50000000000000000000e+003) (17, 1.50000000000000000000e+003) (18, 1.05913758277893066406e+000) (19, 3.80383539199829101562e+000) (20, 1.37372267246246337891e+000) (21, 2.91033864021301269531e+000) (22, 1.26881301403045654297e+000) (23, -1.08701157569885253906e+000) (24, -8.81352424621582031250e+000) (25, 1.89121052622795104980e-001) (26, -3.20589904785156250000e+001) (27, 1.50000000000000000000e+003) (28, 